svm_type c_svc
kernel_type rbf
gamma 0.00012207
nr_class 2
total_sv 50
rho -0.388885
label 1 -1
nr_sv 26 24
SV
7.315944904705536 0:-0.70297 1:-0.968912 2:-0.980769 3:-0.8125 4:-0.373134 5:-0.333333 6:0.0909091 7:-0.764706 8:-0.72973 9:-0.65 10:-0.68 11:-0.45 12:-0.84 13:-0.94 14:0.128631 15:0.425532 16:-1 17:-0.277778 18:-0.764706 19:-1 20:-0.457627 21:-0.174603 22:-0.153846 23:-0.591549 24:-0.54717 25:-0.636364 26:-0.259259 27:-0.428571 28:-0.1875 29:0.491525 30:-0.157895 31:-0.435897 32:0.106061 33:-0.846154 34:-0.235294 35:-0.8 36:-0.735294 37:0.652174 38:1 39:-0.782805 40:-0.879699 41:-0.71 42:-0.890411 43:0.142857 44:0.620438 45:-0.111111 46:-0.0481928 47:-0.377049 48:-0.891892 49:-0.988827 50:-0.74 51:-0.796296 52:-0.918919 53:-0.454545 54:-0.142857 55:-0.0731707 56:-0.333333 57:-0.386139 58:-0.361702 59:-0.736842 60:-0.339286 61:-0.518797 62:-0.807692 63:-0.894737 64:-0.290323 65:-0.393939 66:-0.454545 67:-0.466667 68:-0.241379 69:-0.555556 70:-0.416667 71:-0.704918 72:-0.866667 73:-0.755102 74:0.2891 75:0.0825688 76:-0.768116 77:-0.254237 78:-0.917808 79:-0.681818 80:-0.85567 81:-0.65 82:-0.545455 83:-0.506173 84:-0.365385 85:-0.816327 86:0.0769231 87:-0.269231 88:-0.541667 89:1 90:1 91:0.0384615 92:-0.6 93:-0.852941 94:-0.44 95:-0.956989 96:-0.882353 97:1 98:-0.177419 99:-0.794239 100:-0.929648 101:-0.915254 102:-0.702128 103:-0.458333 104:1 105:-0.357143 106:-0.317757 107:-0.757576 108:-0.9 109:-0.971831 110:-0.954128 111:-0.986577 112:-1 113:-0.636364 115:0.333333 116:-0.346939 117:-0.835052 118:-0.171429 119:-0.72 120:-0.484848 121:-0.410256 122:-0.6 123:-0.714286 124:-0.111111 125:0.52381 126:-0.833333 127:-0.875 128:-0.625 129:-0.833333 130:-0.157895 131:-0.753846 132:-0.943662 133:-0.612903 134:0.176471 135:0.443609 136:-0.727273 137:-0.131579 138:-0.282051 139:-0.653846 140:-0.752066 141:-0.927711 142:-0.589744 143:-0.836207 144:-1 145:-0.913043 146:-0.76 147:-0.688889 148:-0.823529 149:-0.3125 150:-0.575758 151:-0.541667 152:-0.85 153:-0.777778 154:-0.714286 155:-0.701493 156:-0.771429 157:-0.288889 158:0.715736 159:-0.412322 160:-0.534653 161:-0.467811 162:-0.433333 163:-0.34375 164:0.575 165:0.111111 166:0.212389 167:-0.273973 168:-0.9 169:-0.828125 170:-0.724138 171:-0.832061 172:-0.84507 173:-0.851852 174:-0.92 175:-0.5 176:-0.538462 177:-0.6 178:-0.6 179:-0.948052 180:-0.705426 181:-0.893617 182:-0.333333 183:-0.8 184:-0.538462 185:0.290323 186:-0.117647 187:-0.030303 188:-0.190476 189:0.05 190:-0.0555556 191:-0.0588235 192:-0.692308 193:-0.507538 194:-0.853881 195:0.288889 196:-0.463918 197:-0.39759 198:0.25641 199:-0.745098 200:0.0857143 201:-0.711538 202:-0.627907 203:-0.408163 204:-0.241706 205:-0.604651 206:-0.589744 207:-0.630769 208:-1 209:-0.861386 210:-0.645833 211:-0.851064 212:-0.354497 213:-0.589041 214:-0.152542 215:-0.478788 216:-0.358974 217:-0.256637 218:0.215517 219:0.161616 220:0.204545 221:-0.607843 222:0.308642 223:0.583333 224:1 225:-0.222222 226:0.259615 227:0.2 228:-0.534247 229:-0.315789 230:-0.809524 231:-0.666667 232:-0.920635 233:-0.807692 234:0.025641 235:-0.653846 236:-0.491525 237:-0.24 238:-0.285714 239:-0.684211 240:-0.739837 241:-0.459459 242:-0.456522 243:-0.68254 244:-0.257143 245:-0.12 246:-0.333333 247:-0.25 248:-0.5 249:0.28 250:-0.241379 251:-0.626667 252:-0.732394 253:0.0526316 254:0.25641 255:0.477387 256:-0.0350877 257:0.0784314 258:0.574468 259:-0.625 260:-0.0704225 261:-0.737226 262:-0.428571 263:0.0594059 264:-0.833333 265:-0.478788 266:-0.728814 267:-0.535714 268:-0.538462 269:0.0746269 270:-0.4375 271:-0.443038 272:-0.165829 273:-0.844156 274:-0.830508 275:-0.851064 276:-0.880435 277:-0.25 278:0.928934 279:-0.462857 280:-0.530055 281:0.0190476 282:-0.0927835 283:0.188679 284:1 285:0.805556 286:0.392857 287:0.690323 288:-0.443038 289:-0.898477 290:-0.289617 291:-0.873563 292:-0.188406 293:-0.929412 294:-0.24 295:-0.321429 296:-0.0545455 297:-0.647059 298:-0.65625 299:-0.794393 300:-0.71831 301:-0.915966 302:-0.859155 303:-0.681818 304:0.655172 305:-0.395349 306:-0.6 307:-0.933333 308:-0.1875 309:-0.375 310:-0.517241 311:-0.323077 312:-0.727273 313:-0.816514 314:1 315:-0.4 316:-0.673469 317:0.222222 318:1 319:-1 320:-0.611111 321:-0.240506 322:-0.647059 323:0.728814 324:0.272727 325:-0.692308 326:-0.481481 327:-0.416667 328:-0.509434 329:1 330:-0.468354 331:-0.909091 332:-0.801242 333:-0.621622 334:-0.777778 335:-0.818182 336:-0.756757 337:0.232558 338:-0.525 339:-0.876923 340:-0.923404 341:-0.588477 342:-0.6875 343:-0.111111 344:0.888 345:-0.297297 346:-0.2 347:-0.251613 348:-0.771429 349:-0.93985 350:-0.919463 351:-0.84507 352:-0.821782 353:0.870968 354:-0.782609 355:1 356:-0.326923 357:-0.822222 358:-0.529412 359:-0.8125 360:-0.775281 361:-0.91623 362:-0.757576 363:-0.955556 364:-0.0588235 365:-0.625 366:-0.142857 367:-0.789474 368:-0.612903 369:0.272727 370:-0.0833333 371:-0.79661 372:-0.802469 373:-0.0196078 374:-0.632653 375:-0.605839 376:-0.808219 377:-0.217391 378:0.8125 379:-0.815385 380:-0.176471 381:-0.857143 382:-0.4 383:-0.10828 384:-0.354167 385:-0.969697 386:-0.238095 387:-0.608696 388:-0.43662 389:0.12069 390:0.460317 391:0.471698 392:-0.375887 393:-0.9 394:-0.470588 395:-0.75 396:-0.916667 398:-0.759036 399:-0.940928 400:-0.486166 401:-0.535865 402:-0.2 403:0.04 404:0.354839 405:0.722222 406:0.0983607 407:0.390863 408:-0.9 409:-0.818182 410:-0.806122 411:-0.925134 412:-0.984615 413:-1 414:-0.263158 415:-0.828571 416:-0.795918 417:-0.864198 418:-0.964602 419:-0.833333 420:-0.958763 421:-0.866667 422:-0.871429 423:-0.826087 424:-0.896552 425:-0.545455 426:-0.166667 427:-0.818182 428:-0.142857 429:-0.12 430:-0.297297 431:-0.846154 432:-0.851852 433:0.379747 434:1 435:-0.032967 436:-0.818182 437:0.181818 438:0.405405 439:-0.970588 440:-0.318681 441:-0.478261 442:-0.764706 443:1 444:-0.953757 445:0.421053 446:0.0625 447:0.304348 448:0.368421 449:-0.655172 450:0.923077 451:0.288889 452:-0.120567 453:-0.978495 454:-0.0344828 455:-0.621053 456:-0.727273 457:-0.5 458:0.626374 459:-0.25523 460:0.191304 461:0.27193 462:-0.934426 463:-0.47541 464:0.111111 465:-0.756098 466:0.921053 467:0.333333 468:-0.782178 469:-0.717949 470:-0.634043 471:-0.793427 472:-0.705882 473:-0.384615 474:0.609756 475:-0.0344828 476:-0.615385 477:-0.726619 478:-0.446809 479:-0.744361 480:-0.842857 481:-0.811159 482:-0.771429 483:-0.896104 484:-0.405405 485:-0.391304 486:-0.666667 487:-0.666667 488:-0.125 489:-0.517241 490:-1 491:-0.925926 492:-1 493:-0.208791 494:-0.521951 495:-0.811881 496:-0.534483 497:-0.0153846 498:0.475728 499:-0.6 500:-0.451852 501:-0.695238 502:-0.87013 503:0.688525 504:-0.019802 505:0.0107527 506:-0.977528 507:-0.591837 508:-0.135593 509:-0.616162 510:-0.491525 511:-0.483146 512:-0.610738 513:-0.553398 514:-0.151515 515:-0.694915 516:-0.505618 517:-0.471074 518:0.25 519:-0.286307 520:-0.306667 521:-0.195876 522:-0.403846 523:-0.503876 524:0.0309278 525:-0.296703 526:0.0382979 527:-0.175758 528:-0.9 529:-0.65 530:-0.561644 531:-0.697368 532:-0.762238 533:-0.731343 534:-0.277778 535:-1 536:-0.36 537:-0.573333 538:-0.74 539:-0.788235 540:-0.988764 541:-0.855319 542:-0.854545 543:-0.6875 544:-0.54386 545:-0.6 546:-0.692308 547:-0.735849 548:-1 549:-0.6875 550:-0.673469 551:-0.857143 552:-0.763889 553:0.292818 554:0.578947 555:0.55 556:0.00763359 557:-0.230769 558:0.906542 559:-0.409836 560:0.258621 561:-0.694444 562:-0.710843 563:0.718447 564:-0.414894 565:-0.163043 566:-0.722772 567:-0.222222 568:-0.409524 569:-0.628205 570:-0.454545 571:-0.515789 572:0.390476 573:-0.483871 574:-0.301205 575:0.0561798 576:-0.219048 577:-0.419753 578:0.033557 579:-0.175 580:-0.0239234 581:0.275229 582:-0.0909091 583:-0.325843 584:0.305785 585:-0.325153 586:-0.0733945 587:0.581395 588:-1 589:-0.396825 590:-0.550459 591:-0.251232 592:-0.24812 593:-0.195122 594:-1 595:-0.16 596:-0.849057 597:-1 598:-0.89781 599:-0.527559 600:-0.878049 601:-0.685714 602:-0.857143 603:-0.929825 604:-0.0465116 605:0.28 606:-0.583333 607:0.172414 608:-0.916667 609:-0.6 610:-0.373494 611:-0.291667 612:-0.489362 613:-0.822785 614:0.243243 615:-0.4 616:-0.178571 617:0.0232558 618:1 619:-0.0980392 620:-0.418182 621:-0.657895 622:-0.809524 623:-0.333333 624:1 625:-0.179487 627:-0.919192 628:-0.526316 629:1 630:-0.78125 631:-0.724138 632:-0.0666667 633:-0.361702 634:0.227273 635:-0.5 636:-0.666667 637:0.428571 638:-0.927711 639:-0.858586 640:-0.74 641:-0.828571 642:-0.546667 643:-0.542857 644:0.590643 645:-0.571429 646:-0.522936 647:1 648:-0.952941 649:-0.888889 650:-0.686957 651:-0.803279 652:-0.915493 653:-0.672727 654:-0.241379 655:-0.589744 656:-0.281553 657:-0.853403 658:-0.0629371 659:-0.864078 660:-0.971014 661:-0.525424 662:-0.958333 663:-0.960784 664:0.2 665:1 666:-0.473684 667:-0.391304 668:-0.407407 669:-0.5 670:-0.403509 671:-0.306122 672:-0.392405 673:-0.775 674:-0.351351 675:-0.582418 676:0.902439 677:-0.238095 678:1 679:-0.222222 680:0.266667 681:-0.615385 682:-0.166667 683:1 684:1 685:-0.574468 686:-0.555556 687:-0.92 688:-0.631579 689:-0.030303 690:-0.777778 691:-0.702128 692:0.0105263 693:-0.849057 694:1 695:-0.333333 696:-0.774194 697:0.180328 698:-0.577236 699:-0.643411 700:-0.541126 701:-0.494505 702:-0.560976 703:-0.983051 704:0.668449 705:0.395349 706:0.213793 707:-0.113924 708:-0.862745 709:-0.706294 710:-0.849711 711:-0.797235 712:-0.591398 713:-0.514563 714:-0.438596 715:-0.517241 716:0.333333 717:-0.630631 718:-0.125828 719:-0.529412 720:-0.731707 721:-0.591398 722:-0.852941 723:-0.883117 724:-0.0652174 725:0.025641 726:-0.84 727:-0.822222 728:-0.5 729:-0.266667 730:-0.8 731:-0.701149 732:-0.92233 733:-0.355556 734:-0.587629 735:-0.0294118 736:-0.047619 737:-0.179487 738:-0.72 739:-0.627119 740:-0.405405 741:-0.860465 742:-0.823529 743:1 744:0.215385 745:1 746:-0.714286 747:-0.90099 748:1 749:-0.2 750:-0.609756 751:-0.15 752:-0.810056 753:-0.910448 754:-0.111111 755:-0.179104 756:-0.454545 757:-0.338235 758:-0.507246 759:-0.340426 760:-0.406114 761:-0.275862 762:-0.448276 763:-0.844156 764:0.288889 765:-0.428571 766:0.0192308 767:0.531532 768:-0.897436 769:-0.946524 770:-0.574879 771:-0.813472 772:-0.747573 773:-0.843137 774:-0.3125 775:0.3125 777:-0.858824 778:-0.604938 779:-0.662338 780:-0.0243902 781:-0.727273 782:-0.538462 783:-0.440559 784:-0.966667 785:-0.534884 786:-0.473684 787:-0.277778 788:-0.428571 789:-0.391304 790:0.25 791:-0.957447 792:-0.945205 793:-0.494737 794:-0.700599 795:-0.572139 796:-0.794872 797:-0.921053 798:0.654321 799:-0.0181818 800:-0.632184 801:-0.64 802:-0.863636 803:0.597826 804:-0.0439024 805:0.544554 806:-0.714286 807:-0.449275 808:0.170732 809:-0.367347 810:-0.297297 811:-0.210526 812:-0.287879 813:-0.425 814:-0.186047 815:-0.441558 816:-0.308271 817:-0.561497 818:-0.828947 819:-0.337079 820:-0.267857 821:0.595092 822:-0.0117647 823:-0.630137 824:-0.402439 825:-0.55102 826:0.0628019 827:0.912281 828:-0.818182 829:-0.428571 830:-0.298701 831:-0.152 832:-0.252336 833:-0.24 834:-0.737705 835:-0.578947 836:-0.164557 837:-0.492063 838:-0.591398 839:-0.872727 840:0.0769231 841:-0.789474 842:-0.477876 843:-0.171598 844:-0.697479 845:-0.836735 846:-0.375 847:-0.416667 848:-0.641026 849:-0.65 850:-0.473684 851:-1 852:-0.623656 853:-0.568627 854:0.166667 855:-0.836735 856:-0.152778 857:0.37037 858:1 859:-0.364706 860:0.111111 861:-0.477273 862:-0.371429 863:0.2 864:0.27193 865:0.22619 866:-0.764706 867:-0.679245 868:0.056 869:-0.307692 870:0.0952381 871:0.0344828 872:0.692308 873:-0.352941 874:0.115789 875:0.08 876:-0.0804598 877:-0.195876 878:0.115385 879:-0.387283 880:-0.558974 881:-0.0808081 882:-0.135593 883:-0.401198 884:-0.92053 885:-0.142857 886:0.0338983 887:0.435115 888:-0.894273 889:-0.665072 890:0.0545455 891:-0.121693 892:0.315436 893:0.328244 894:0.258427 895:-0.125 896:-0.326733 897:-0.54 898:-0.830303 899:-1 900:-1 901:-0.854839 902:-0.797753 903:-0.971429 904:0.341564 905:-0.48503 906:-0.643564 907:-0.787234 908:-0.853448 909:-0.911392 910:-0.884817 911:-0.323944 912:-0.391304 913:-0.971014 914:-0.521368 915:-0.714286 916:0.04 917:-0.765957 918:1 919:0.459459 920:-0.962963 921:-0.47619 922:-0.490196 923:-0.75 924:-0.6 925:0.183673 926:-0.212121 927:-0.809524 928:-0.83871 929:-0.476923 930:-0.214286 931:-0.71134 932:-1 933:-0.45098 934:-0.666667 935:-0.259259 936:-1 937:-1 938:-0.52 939:-0.37931 940:-0.0704225 941:-0.84739 942:-0.333333 943:-0.625 944:1 945:-0.531915 946:-0.673469 947:-0.756098 948:-0.949686 949:-0.298701 950:0.368421 951:-0.366906 952:-0.542857 953:-0.924528 954:-0.398058 955:-0.710843 956:0.52 957:-0.635036 958:-0.132867 959:-0.891892 960:-0.819355 961:-0.77931 963:-0.891304 964:0.919355 965:-0.486239 966:-0.8 967:-0.373134 968:-0.861272 969:-0.88024 970:-0.463415 971:-0.670886 972:-0.647799 973:-0.475177 974:-0.283333 975:-0.395833 976:0.37037 977:-0.414634 978:-0.145631 979:0.885714 980:0.239437 981:-0.428571 983:1 984:1 985:0.808219 986:-0.414634 987:-0.729167 988:-0.302326 989:0.318182 990:0.434783 991:-0.555556 992:0.272727 993:0.22449 994:1 995:0.209877 996:0.375 997:-0.193548 998:-0.655172 999:0.294118 1000:1 1001:-0.837838 1002:0.354839 1003:-0.235294 1004:1 1005:-0.301205 1006:0.623762 1007:-0.313433 1008:-0.343511 1009:0.529412 1010:0.633466 1011:0.0775862 1012:0.0512821 1013:0.0638298 1014:0.272727 1015:-0.208333 1016:0.0485437 1017:-0.271605 1018:-0.283422 1019:-0.545455 1020:-0.808383 1021:-0.662921 1022:0.795455 1023:-0.684211 1024:-0.0862069 1025:-0.671498 1026:-0.813953 1027:-0.776 1028:-0.87013 1029:-0.936652 1030:-0.277778 1031:-0.425926 1032:-0.891473 1033:-0.728155 1034:-0.54185 1035:-0.537634 1036:-0.134021 1037:-0.358209 1038:0.496183 1039:-0.490909 1040:1 1041:-0.595745 1043:0.61039 1044:0.565217 1045:0.818182 1046:-0.584906 1047:-0.813084 1048:-0.368421 1049:-0.235294 1050:0.777778 1051:-0.196078 1052:0.00636943 1053:-0.368421 1054:0.451613 1055:-0.451327 1056:-0.246753 1057:0.011236 1058:-0.271523 1059:0.184615 1060:0.469136 1061:-0.5 1063:-0.803279 1064:0.603604 1065:0.61039 1066:-0.205128 1067:-0.735849 1068:0.027027 1069:0.762712 1070:0.875 1071:0.714286 1072:0.752941 1073:0.5 1074:-0.233645 1075:0.389831 1076:0.0123457 1077:-0.560976 1078:-1 1079:-0.858333 1080:-0.855319 1081:-0.380952 1082:-0.456522 1083:-0.284314 1084:-0.326923 1085:-0.755656 1086:-0.877551 1087:-0.871658 1088:-0.948936 1089:-0.928 1090:-0.315789 1091:-0.672727 1092:-0.518072 1093:-0.77027 1094:-0.593407 1095:0.0434783 1096:-0.0392157 1097:0.0337079 1098:-0.11 1099:-0.027027 1100:0.306452 1101:-0.883721 1102:-0.928571 1103:-0.568182 1104:-0.272727 1105:-0.205128 1106:-0.823899 1107:-0.895197 1108:-0.575758 1109:-0.410526 1110:-0.235294 1111:-0.595238 1112:0.796875 1113:-0.0153846 1114:-0.0482759 1115:-0.345455 1116:-0.0909091 1117:-0.440559 1118:-0.75 1119:0.236641 1120:0.683168 1121:0.201794 1122:-0.721739 1123:-0.45283 1124:-0.325444 1125:-0.258824 1126:0.550802 1127:-0.100529 1128:0.157447 1129:0.782609 1130:0.891667 1131:0.525862 1132:0.0777778 1133:-0.204082 1134:-0.553191 1135:-0.517857 1136:-0.639535 1137:-0.394595 1138:-0.27551 1139:-0.144144 1140:-0.982063 1141:-0.42446 1142:0.0289855 1143:0.128713 1144:0.233831 1145:-0.382609 1146:-0.719745 1147:-0.847619 1148:-0.960159 1149:-0.934156 1150:-0.816514 1151:-0.836735 1152:-0.726619 1153:-0.807018 1154:-0.292929 1155:-0.845361 1156:-0.292035 1157:-0.490909 1158:0.125 1159:-0.0461538 1160:0.955056 1161:-0.921348 1162:-0.401709 1163:-0.0909091 1164:0.00729927 1165:-0.351351 1166:-0.798658 1167:-0.800905 1168:-0.693548 1169:0.25 1170:-0.576271 1171:-0.669173 1172:0.752212 1173:-0.325301 1174:-0.20354 1175:-0.530612 1176:-0.171717 1177:-0.0285714 1178:-1 1179:0.616438 1180:0.775148 1181:0.241026 1182:0.0552147 1183:-0.287879 1184:-0.378151 1185:0.228346 1186:0.314554 1187:0.280576 1188:0.741497 1189:0.868852 1190:0.695067 1191:0.254386 1192:-0.00469484 1193:-0.04 1194:-0.375 1195:0.1 1196:-0.112903 1197:-0.106383 1198:0.430108 1199:0.704082 1200:-0.859873 1201:-0.363636 1202:-0.186047 1203:-0.708333 1204:-0.585586 1205:-0.0310559 1206:-0.0526316 1207:-0.285714 1208:-0.272727 1209:-0.613793 1211:-0.655738 1212:-0.373737 1213:-0.555556 1214:-0.745223 1215:-0.411765 1216:0.151515 1217:-0.744681 1218:0.645161 1219:1 1220:0.833333 1221:0.657143 1222:-0.530864 1223:0.169231 1224:-0.359223 1225:0.75 1226:-0.0689655 1227:-0.736264 1228:-0.441176 1229:0.75 1230:0.43662 1231:0.25 1232:1 1233:1 1234:0.275362 1235:-0.121212 1236:1 1237:0.62069 1238:-0.770115 1240:-0.753425 1241:-0.54878 1242:-0.477273 1243:-0.962264 1244:0.6 1245:0.84127 1246:-0.333333 1247:-1 1248:-0.896104 1249:-0.795122 1250:-0.674208 1251:0.458333 1252:0.612903 1253:0.843621 1254:0.757282 1255:-0.301435 1256:-0.774059 1257:-0.188034 1258:0.086758 1259:-0.886364 1260:-1 1261:-0.357143 1262:-0.166667 1263:-0.863014 1264:-0.538462 1265:-0.383562 1266:-0.408451 1267:-0.961905 1268:-0.641791 1269:-0.793103 1270:-0.516779 1271:-0.856574 1272:-0.938931 1273:-0.91133 1274:-0.912409 1275:-0.790698 1276:0.490196 1277:-0.0823529 1278:-0.585366 1279:1 1280:-0.30303 1281:-0.56 1282:0.923077 1283:1 1284:-0.761194 1285:0.622642 1286:-0.155556 1287:-0.396226 1288:-0.302752 1289:-0.2 1290:-0.580952 1291:-0.73913 1292:-0.769231 1293:0.0689655 1294:0.255814 1295:-0.402299 1296:-0.702703 1297:-0.212121 1298:-0.846154 1299:1 1300:1 1301:-0.422535 1302:-0.428571 1303:-0.771429 1304:0.422886 1305:0.666667 1306:-0.0344828 1307:-0.194805 1308:-0.968421 1309:-0.748744 1310:-0.619433 1311:-0.254237 1312:0.196581 1313:0.864 1314:0.841584 1315:0.365639 1316:-0.181435 1317:-0.304721 1318:-0.402844 1319:-0.885417 1320:-0.812808 1321:-0.801653 1322:-0.425 1323:-0.932203 1324:-0.742331 1325:-0.310734 1326:-0.72093 1327:-0.903614 1328:-0.82906 1329:-0.939394 1330:-0.754098 1331:-0.405405 1332:-0.77931 1333:-0.736842 1334:-0.864407 1335:-0.928058 1336:-0.326531 1337:-0.179191 1338:-0.439394 1339:0.384615 1340:-0.565789 1341:-0.958763 1342:-0.612903 1343:-0.571429 1344:-0.222222 1345:0.36 1346:-0.935484 1347:-0.674419 1348:-0.259259 1349:-0.541667 1350:-0.0909091 1351:-0.146341 1352:-0.115646 1353:-0.588235 1354:-0.413333 1355:-0.339806 1356:-0.822581 1357:-0.5 1358:-0.590909 1359:-0.232877 1360:-0.765957 1361:-0.52795 1362:0.54386 1363:-0.3 1364:1 1365:-0.511628 1366:-0.882353 1367:0.408163 1368:-0.914894 1369:-0.897436 1370:-0.53719 1371:-0.0991736 1372:0.458333 1373:0.848214 1374:0.22549 1375:0.12844 1376:-0.266129 1377:-0.852459 1378:-0.990868 1379:-0.990338 1380:-0.762963 1381:-0.68 1382:0.206897 1383:0.0444444 1384:-0.866667 1385:-0.3 1386:-0.813559 1387:-0.487805 1388:-0.233766 1389:-0.479452 1390:0.367232 1391:-0.439024 1392:-0.727891 1393:-0.33945 1394:-0.00671141 1395:-0.6 1396:-0.345794 1397:0.383178 1398:-0.538462 1399:-0.383333 1400:0.233083 1401:-0.74359 1402:-0.253333 1403:0.290323 1404:-0.0344828 1405:-0.378378 1406:-0.464789 1407:-0.892857 1408:0.0222222 1409:-0.333333 1410:-0.171429 1411:-0.636364 1412:0.0909091 1413:-0.734375 1414:-0.0365854 1415:0.142857 1416:1 1417:0.153846 1418:0.454545 1419:-0.518519 1420:-0.72043 1421:-0.189189 1422:1 1423:-0.804348 1424:0.418803 1425:-0.0921053 1426:-0.576923 1427:0.709091 1428:-0.621053 1429:-1 1430:-0.403361 1431:0.0512821 1432:0.729167 1433:0.934884 1434:0.182222 1435:0.748879 1436:-0.27027 1437:-0.252632 1438:-0.255556 1439:-0.406699 1440:-0.906542 1441:0.03125 1442:-0.490909 1443:0.26 1444:-0.0532544 1445:-0.5 1446:-0.811765 1447:-0.730159 1448:-0.285714 1449:-0.0440252 1450:-0.149254 1451:-0.423913 1452:-0.932203 1453:0.274336 1454:-0.0786517 1455:-0.333333 1456:-0.119266 1457:0.121495 1458:1 1459:1 1460:0.527273 1461:-0.290323 1462:0.44186 1463:-0.537037 1464:1 1465:0.686275 1466:0.0930233 1467:-0.462185 1468:0.445783 1469:1 1470:0.294118 1471:-0.717949 1472:0.292517 1473:0.635514 1474:-0.010989 1475:0.0676692 1476:-0.0631579 1477:0.747573 1478:1 1479:0.371429 1480:-0.408602 1481:0.342342 1482:1 1483:1 1484:0.527559 1485:0.406977 1486:0.291866 1487:1 1488:-0.456647 1489:0.0125523 1490:0.0782609 1491:0.151261 1492:0.214286 1493:0.726496 1494:0.855204 1495:0.242991 1496:-0.235294 1497:-0.447964 1498:-0.304348 1499:-1 1500:-0.68 1501:-0.047619 1502:-0.78481 1503:-0.918367 1504:-0.684211 1505:-0.910448 1506:-0.578947 1507:-0.0769231 1508:0.153846 1509:-0.820513 1510:-0.896825 1511:-0.589041 1512:-0.732394 1513:-0.819905 1514:-0.233645 1515:-0.785714 1516:0.765957 1517:0.942857 1518:-0.890411 1519:-0.571429 1520:-0.414634 1521:-0.76 1522:-1 1523:0.809524 1524:-0.363636 1525:0.4 1526:0.762712 1527:-0.684211 1528:0.283019 1529:0.6 1530:-0.0294118 1531:-0.2 1532:0.227273 1533:-0.688889 1534:-0.489362 1535:0.0181818 1536:1 1537:-0.52 1538:-0.872727 1539:-0.118644 1540:-0.490909 1541:-0.649289 1542:-0.135135 1543:-0.277778 1544:-0.0853659 1545:-0.358491 1546:-0.587302 1547:-0.780822 1548:-0.764706 1549:-0.923077 1550:-0.891473 1551:-0.855263 1552:-0.928144 1553:-0.620968 1554:-0.662222 1555:-0.649485 1556:-0.559809 1557:0.372093 1558:-0.10303 1559:-0.859155 1560:-0.954545 1561:-0.151515 1562:-0.641026 1563:-0.545455 1564:-0.946667 1565:-0.915789 1566:-0.333333 1567:-0.885714 1568:-0.826087 1569:-0.405405 1570:-0.764192 1571:-0.367816 1572:-0.71134 1573:-0.825397 1574:-0.164835 1575:-1 1576:1 1577:0.587302 1578:-0.756098 1579:1 1580:0.436893 1581:-0.309091 1582:-0.3 1583:0.318182 1584:-1 1585:-0.333333 1586:-0.660714 1587:-0.285714 1588:1 1589:1 1590:1 1591:0.607843 1592:0.282609 1593:1 1594:-0.344262 1595:-0.923077 1596:0.22807 1597:1 1598:-0.889571 1599:0.297297 1600:-0.236364 1601:-0.506024 1602:-0.703704 1603:-0.857143 1604:0.809091 1605:0.754386 1606:-0.478261 1607:-0.864078 1608:-0.75 1609:-0.65625 1610:-0.488372 1611:-0.537313 1612:-0.8 1613:-0.658333 1614:0.521531 1615:-0.71028 1616:-0.658228 1617:0.536 1618:0.545455 1619:-0.872727 1620:-0.37037 1621:-0.15 1622:-0.342466 1623:-0.416667 1624:-0.741935 1625:-0.802326 1626:-0.625 1627:-0.662338 1628:-0.931624 1629:-0.863636 1630:-0.461538 1631:-0.630435 1632:-0.922652 1633:-0.683616 1634:-0.751351 1635:-0.04 1636:1 1637:-0.375 1638:0.0675676 1639:-0.481481 1640:1 1641:-0.847826 1642:-0.555556 1643:0.918367 1644:1 1645:-0.3 1646:-0.969231 1647:-0.116279 1648:1 1649:0.972222 1650:1 1651:1 1652:-0.131313 1653:-0.771429 1654:0.292308 1655:-0.837838 1656:-0.913793 1657:1 1658:-0.717172 1659:-0.945205 1660:-0.806452 1661:-0.382114 1662:0.363636 1663:0.677419 1664:0.540373 1665:0.39759 1666:-0.956522 1667:-0.229358 1668:-0.631579 1669:-1 1670:-0.854545 1671:-0.714286 1672:-0.783439 1673:-0.5 1674:0.502222 1675:-0.815789 1676:-0.0545455 1677:0.550296 1678:0.623932 1679:-0.65625 1680:-0.542857 1681:-0.290323 1682:-0.666667 1683:-0.473684 1684:-0.698113 1685:-0.77381 1686:-0.529412 1687:-0.813333 1688:-0.837838 1689:-0.305085 1690:0.278689 1691:-0.4 1692:-0.522013 1693:-0.431818 1694:-0.610619 1695:0.0882353 1696:1 1697:-0.214815 1698:0.134328 1699:-0.677966 1700:0.943662 1701:-0.333333 1702:-0.0606061 1703:0.353846 1704:1 1705:1 1706:-0.794118 1707:0.290323 1708:1 1709:1 1710:1 1711:1 1712:0.927928 1713:-0.54902 1714:-0.575221 1715:-0.966667 1716:-0.707317 1717:0.612903 1718:-0.184211 1719:-0.938776 1720:-0.651163 1721:-0.969925 1722:-0.408 1723:-0.35 1724:-0.464286 1725:-0.516129 1726:-0.863636 1727:-0.615894 1728:-0.735849 1729:-0.831325 1730:-0.664336 1731:-0.481865 1732:-0.381166 1733:0.666667 1734:0.892116 1735:0.576037 1736:0.201681 1737:0.4 1738:0.383648 1739:-0.213483 1740:-0.666667 1741:-0.934426 1742:-0.891892 1744:-0.567568 1745:-0.721154 1746:-0.16129 1747:-0.844828 1748:-0.701863 1749:-0.0594059 1750:0.383333 1751:0.225225 1752:-0.644444 1753:-0.843972 1754:0.0886076 1755:-0.548872 1756:-0.406897 1757:-0.267176 1758:-0.267327 1759:-0.741007 1760:-0.879195 1761:-0.45 1762:-0.372093 1763:-0.321429 1764:0.492063 1765:0.409091 1766:-0.719626 1767:0.5625 1768:0.181818 1769:0.164179 1770:-0.171429 1772:-0.5 1773:-0.575342 1774:-0.964758 1775:-0.956284 1776:-0.583815 1777:0.0935252 1778:-0.607843 1779:-0.22314 1780:-0.578947 1781:-0.59596 1782:-0.189873 1783:-0.328671 1784:-0.186207 1785:-0.409692 1786:-0.811321 1787:-0.604396 1788:-0.44086 1789:-0.762238 1790:-0.987097 1791:-0.345912 1792:0.6 1793:1 1794:1 1795:0.532468 1796:0.585062 1797:0.702128 1798:-0.0810811 1799:-0.555556 1800:-0.918367 1801:-0.957447 1802:-0.809524 1803:-0.75 1804:-0.636364 1805:-0.594937 1806:-0.714286 1807:-0.307692 1808:-0.583333 1809:0.166667 1810:-0.615385 1811:-0.878788 1812:-0.927711 1813:-0.777778 1814:-0.0526316 1815:-0.913043 1816:0.361111 1817:-0.885714 1818:-0.850746 1819:-0.245283 1820:0.129032 1821:-0.769231 1822:-0.297297 1823:-0.333333 1824:-0.75 1825:-0.571429 1826:-0.363636 1827:-0.824561 1828:-0.166667 1829:-1 1830:0.515152 1831:-0.584906 1832:-0.384615 1833:-0.835294 1834:-0.446809 1835:-0.666667 1836:-0.836735 1837:-1 1838:-0.751634 1839:-0.688889 1840:-0.344828 1841:-0.833333 1842:-0.781818 1843:-0.583333 1844:-0.2 1845:0.310345 1846:-0.827586 1847:-0.774834 1848:-0.652174 1849:-0.885714 1850:-0.891892 1851:-0.92381 1852:-0.941176 1853:-0.862745 1854:-0.835294 1855:-0.645833 1856:-0.465116 1857:-0.325 1858:-0.612903 1859:-0.818182 1860:-0.794872 1861:-0.583333 1862:-0.6 1863:-0.692308 1865:-0.714286 1866:-1 1867:0.4 1868:-0.241379 1869:-0.666667 1870:-0.652174 1871:-0.697674 1872:-0.811966 1873:-0.948387 1874:-0.780488 1875:-0.78481 1876:-0.15873 1878:-0.831325 1879:-0.204545 1880:-0.612245 1881:-0.265306 1882:-0.918367 1883:-0.650794 1884:-0.75 1885:-0.731343 1886:-0.863248 1887:-0.282051 1888:0.027027 1889:-0.870968 1890:0.304348 1891:0.172414 1892:-0.311111 1893:-0.491525 1894:-0.736842 1895:-0.862069 1896:-1 1897:-0.72973 1898:-0.568627 1899:-0.702128 1900:-1 1901:-0.865672 1902:-0.92 1903:-1 1904:0.226667 1905:-0.555556 1906:-0.820225 1907:-0.539683 1908:-0.904762 1909:-1 1910:-0.954545 1911:-0.870968 1912:-0.871795 1913:-0.9375 1914:-0.703704 1915:-0.613445 1916:-0.46875 1917:0.283951 1918:0.422222 1919:-0.848101 1920:-0.166667 1921:-0.423077 1922:-0.938462 1923:-0.2 1924:-0.391304 1925:-0.538462 1926:-0.933333 1927:-0.6 1928:-0.870968 1929:-0.896552 1930:-0.873418 1931:-0.855072 1932:-0.815603 1933:-0.641975 1934:-0.517241 1935:-0.744966 1936:0.100529 1937:-0.603774 1938:-0.574194 1939:-0.6125 1940:0.0993377 1941:-0.822785 1942:-0.714286 1944:0.842105 1945:-0.734513 1946:-0.834586 1947:0.483871 1948:-0.272727 1949:-0.511111 1950:-0.225806 1951:-0.363636 1952:-0.310924 1953:-0.453333 1954:-0.702128 1955:-0.464286 1956:-0.0847458 1957:0.0232558 1958:-0.585366 1959:-0.605634 1960:-0.607143 1961:-1 1962:-0.828571 1963:-0.657143 1964:-0.0814815 1965:-0.346154 1966:-0.663158 1967:-0.945946 1968:-0.853659 1969:-1 1970:-1 1971:-0.583333 1972:-0.3 1973:-1 1974:-0.682243 1975:-0.810345 1976:-0.94709 1977:-0.370629 1978:0.607143 1979:-0.83908 1980:-0.24 1981:-0.179487 1982:-0.68254 1983:-0.857143 1984:-0.560976 1985:-0.641026 1986:-0.619048 1987:-0.902439 1988:-0.909091 1989:-0.708333 1990:-0.303371 1991:-0.852459 1992:-0.894737 1993:-0.859649 1994:-0.1 1995:-0.575 1996:0.278049 1997:0.596639 1998:-0.12069 1999:0.00645161 2000:0.188571 2001:-0.452381 2002:-0.882353 2003:-0.589286 2004:-0.358974 2005:-0.774194 2006:-0.974684 2007:-0.68 2008:-0.647059 2009:0.342105 2010:-0.533333 2011:-0.885714 2012:-0.189189 2013:-0.0615385 2014:0.189189 2015:-0.386667 2016:-0.339286 2017:0.179487 2018:0.0171429 2019:-0.609756 2020:-0.921569 2021:-0.3 2022:-0.268293 2023:-0.447368 2024:-0.708738 2025:-0.186047 2026:-1 2027:-0.232 2028:-0.864407 2029:-0.844156 2030:-0.971831 2031:-0.777778 2032:-0.6 2033:-0.955056 2034:-0.528455 2035:-0.906667 2036:-0.521368 2037:0.288889 2038:0.181818 2039:-0.670588 2040:0.320755 2041:0.047619 2042:-0.666667 2043:-0.692308 2044:-0.829787 2045:-0.518519 2046:-0.804878 2047:-0.698113 2048:-0.929825 2049:-0.23913 2050:0.326087 2051:-0.621622 2052:-0.674157 2053:-0.239766 2054:0.0625 2055:-0.203125 2056:0.153846 2057:0.0709677 2058:-0.232704 2059:0.174825 2060:-0.182796 2061:-0.121951 2062:-0.324324 2063:-0.623932 2064:1 2065:0.65 2066:-0.8125 2067:-0.384615 2068:1 2069:0.928058 2070:0.489051 2071:1 2072:-0.345133 2073:0.352113 2074:0.405941 2075:-0.0379747 2076:0.258621 2077:1 2078:0.121495 2079:-0.327103 2080:-0.721311 2081:-0.90411 2082:-0.354167 2083:-0.557692 2084:0.59633 2085:0.632184 2086:-0.976608 2087:-0.703704 2088:-0.944444 2089:0.0322581 2090:0.100917 2091:0.0363636 2092:-0.0540541 2093:0.114504 2094:0.182796 2095:-0.327586 2096:-0.338028 2097:-0.25 2098:-0.00813008 2099:-0.440678 2100:-0.801653 2101:-0.945946 2102:-0.837838 2103:-0.75 2104:0.157895 2105:0.470588 2106:-0.189189 2107:-0.84 2108:0.36 2109:-0.166667 2110:-0.133333 2111:-0.666667 2112:-0.76699 2113:-0.931707 2114:-0.90566 2115:-0.525773 2116:-0.025641 2117:-0.676471 2118:-0.761905 2119:-0.689655 2120:-0.84 2121:-0.223881 2122:-0.75 2123:-0.142857 2124:-0.803279 2125:-0.6 2126:-0.16129 2127:-0.56 2128:-0.822785 2129:0.489362 2130:-0.627907 2131:-0.785714 2132:-0.509091 2133:-0.746032 2134:-0.5625 2135:-0.802469 2136:-0.971014 2137:0.913043 2138:-0.205479 2139:-0.788618 2140:-0.770833 2141:-0.861272 2142:-0.615385 2143:-0.944444 2144:0.938462 2145:-0.542857 2146:-0.791304 2147:-0.903084 2148:-0.804878 2149:-0.795918 2150:-0.823529 2151:-0.848485 2152:-0.909091 2153:-0.763158 2154:-0.652174 2155:0.0645161 2156:-0.0909091 2157:-0.45098 2158:-0.714286 2159:-0.702128 2160:-0.419355 2161:-0.180328 2162:-0.567568 2163:-0.764706 2164:-0.588235 2165:-0.421053 2166:-0.555556 2167:-0.454545 2168:-0.888889 2169:-0.529412 2170:-0.567568 2171:-0.585366 2172:-0.95122 2173:-0.939394 2174:-0.325843 2175:-0.767442 2176:-0.857143 2177:-0.21519 2178:-0.721519 2179:-0.433962 2180:-0.641509 2181:-0.606061 2182:-0.5 2183:-0.836066 2184:-0.525424 2185:-0.733333 2186:-0.793103 2187:-0.846154 2188:-0.685714 2189:-0.590909 2190:-0.5625 2191:-0.741935 2192:-0.808511 2193:-0.711111 2194:-0.758621 2195:-0.852941 2196:-0.752809 2197:-0.888889 2198:-0.388535 2199:-0.803922 2200:-1 2201:-0.959596 2202:-0.588235 2203:-0.380952 2204:1 2205:-0.405405 2206:-1 2207:-0.84466 2208:-0.857143 2209:-0.571429 2210:-0.769231 2211:-0.965812 2212:-0.9 2213:-0.794872 2214:-0.238095 2215:-0.484848 2216:-0.346154 2217:-0.472222 2218:-0.207547 2219:-0.868852 2220:-0.297297 2221:-0.469388 2222:-0.818182 2223:-0.882353 2224:-0.666667 2225:-0.769231 2226:-0.571429 2228:-0.833333 2229:-0.529412 2230:-0.5 2231:-0.756757 2232:-0.987654 2233:-0.93133 2234:-0.133333 2235:-0.442857 2236:-0.87013 2237:-0.384615 2238:-0.950617 2239:-0.686747 2240:-0.830769 2241:-0.133333 2242:-0.571429 2243:-0.806452 2244:-1 2245:-0.79661 2246:-0.027027 2247:-0.565217 2248:-0.684211 2249:-0.975904 2250:-0.0416667 2251:-0.371429 2252:-0.544828 2253:-0.804511 2254:-0.638554 2255:-0.9375 2256:-0.90566 2257:-0.83871 2258:-0.4 2259:-0.846847 2260:-0.847222 2261:-0.77931 2262:-0.784615 2263:-0.583333 2264:0.134328 2265:-0.310345 2266:-0.948718 2267:-0.626016 2268:-0.960784 2269:-0.928571 2270:-0.86 2271:-0.863248 2272:-0.68 2273:-0.753846 2274:-0.755102 2275:-0.533333 2276:-0.551724 2277:-0.275862 2278:-0.376623 2279:-0.833333 2280:-0.421687 2281:0.047619 2282:-0.853659 2283:-0.866667 2284:-0.384615 2285:-0.375 2286:-0.875 2287:-0.619048 2288:-0.894737 2289:-0.52381 2290:-0.391304 2291:-0.782178 2292:-0.857143 2293:-0.386555 2294:-0.323383 2295:-0.178295 2296:-0.146067 2297:-0.616162 2298:-0.460674 2299:-0.897436 2300:-0.75 2301:0.416667 2302:-0.454545 2303:-0.916667 2304:-0.571429 2305:-0.747126 2306:-0.5 2307:-0.787234 2308:-0.721519 2309:0.628319 2310:0.152941 2311:0.0416667 2312:-0.442623 2313:-1 2314:-0.205479 2315:-0.783784 2316:-1 2317:0.52381 2318:0.360731 2319:-0.87 2320:-0.883041 2321:-0.857143 2322:-0.73913 2323:-0.781818 2324:-0.0643275 2325:0.5 2326:-0.646018 2327:-0.9 2328:-0.787234 2329:-0.82 2330:-0.831579 2331:-0.910714 2332:-0.872727 2333:-0.630769 2334:-0.54386 2335:-0.878788 2336:-0.813953 2337:-0.289474 2338:0.103448 2339:-0.64 2340:-0.653333 2341:0.298246 2342:-0.321429 2343:-0.0416667 2344:-0.4 2345:-0.448276 2346:-0.583333 2347:-0.612903 2348:-0.703704 2349:-0.272727 2350:-0.6 2351:-0.683168 2352:-0.595092 2353:-0.617021 2354:-1 2355:-0.64497 2356:-0.204082 2357:0.297872 2358:0.230769 2359:0.188119 2360:0.475728 2361:-0.394737 2362:-0.963636 2363:-0.47541 2364:-0.179104 2365:-0.189189 2366:-0.533981 2367:0.115385 2368:-0.0114943 2369:0.777778 2370:0.306667 2371:0.358025 2372:0.168831 2373:0.237113 2374:0.446154 2375:0.109091 2376:0.2 2377:0.515152 2378:0.902834 2379:-0.340102 2380:-0.161905 2381:-0.189189 2382:-0.370787 2383:-0.931034 2384:0.869822 2385:0.978723 2386:-0.0393013 2387:-0.0337079 2388:-0.30303 2389:-0.462185 2390:-0.376471 2391:-0.15 2392:-0.393443 2393:-0.25 2394:-0.552632 2395:-0.364706 2396:-1 2397:0.375 2398:-0.791045 2399:-0.612903 
0.2142430227120566 0:-0.366337 1:-0.917098 2:-0.961538 3:1 4:-0.850746 5:-0.555556 6:-0.545455 7:0.117647 8:-0.72973 9:-0.05 10:-1 11:-0.55 12:-0.98 13:-0.91 14:-0.551867 15:-0.893617 16:-0.921569 17:-0.277778 18:-0.911765 19:-0.288889 20:-0.627119 21:-0.333333 22:-0.153846 23:-0.422535 24:0.188679 25:-0.454545 26:-0.333333 27:-0.428571 28:-0.25 29:-0.830508 30:1 31:-0.179487 32:-0.606061 33:-0.384615 34:0.117647 35:-0.581818 36:-0.558824 37:1 38:0.216495 39:-0.411765 40:-0.609023 41:-0.82 42:-0.479452 43:0.357143 44:-0.591241 45:0.185185 46:-0.626506 47:-0.967213 48:-0.297297 49:-0.854749 50:-0.7 51:-0.462963 52:-0.405405 53:-0.272727 54:0.214286 55:-0.463415 56:-0.4 57:-0.762376 58:0.234043 59:0.684211 60:0.392857 61:-0.62406 62:-0.961538 63:0.368421 64:-0.16129 65:-0.515152 66:-0.909091 67:-0.733333 68:-0.448276 69:0.555556 70:-0.5 71:-0.868852 72:-0.695238 73:-0.765306 74:-0.744076 75:-0.431193 76:-0.594203 77:-0.423729 78:-0.780822 79:-0.454545 80:-0.690722 81:-0.35 82:-1 83:0.246914 84:0.0769231 85:-0.469388 86:-0.0769231 87:-0.538462 88:-0.208333 89:-0.526316 90:-0.421053 91:-0.384615 92:-0.831579 93:-0.794118 94:-0.92 95:-0.763441 96:-0.735294 97:0.913043 98:-0.0645161 99:-0.654321 100:-0.396985 101:-1 102:-0.829787 103:-0.875 104:-0.967213 105:-0.785714 106:-0.149533 107:-1 108:-0.15 109:-0.661972 110:-0.816514 111:-0.583893 112:-0.818182 113:-0.454545 114:1 115:-0.4 116:-0.918367 117:-0.85567 118:-0.628571 119:0.64 120:0.424242 121:-0.666667 122:-0.533333 123:0.714286 124:0.407407 125:-0.809524 128:-0.875 129:-0.666667 130:-0.684211 131:-0.876923 132:-0.549296 133:0.806452 134:0.369748 135:-0.218045 136:-0.242424 137:-0.868421 138:-0.512821 139:-1 140:-0.421488 141:-0.590361 142:-0.435897 143:-0.62931 144:-0.84375 145:-0.565217 146:-0.64 147:-0.0222222 148:-0.823529 149:-0.53125 150:0.151515 151:-0.208333 152:-0.791667 153:-0.753086 155:-0.970149 156:-0.857143 157:0.0222222 158:-0.51269 159:0.601896 160:0.445545 161:-1 162:-1 163:-0.875 164:-0.625 165:0.259259 166:-0.318584 167:-1 168:-0.666667 169:-0.609375 170:-0.655172 171:-0.648855 172:-0.647887 173:0.62963 174:0.04 175:0.75 176:-0.307692 177:-0.353846 178:0.32 179:-0.246753 180:-0.79845 181:-0.617021 182:-0.733333 183:-0.64 184:0.153846 185:0.225806 186:-0.235294 187:-0.272727 188:-0.333333 189:-0.35 190:-0.0555556 191:-0.333333 192:-0.884615 193:-1 194:-0.981735 195:-0.851852 196:-0.649485 197:-0.614458 198:-0.615385 199:-0.54902 200:-0.390476 201:-0.711538 202:-0.55814 203:0.153061 204:-0.364929 205:-0.27907 206:-0.769231 207:-0.446154 208:-0.45614 209:-0.465347 210:-0.645833 211:-0.531915 212:-0.566138 213:-0.917808 214:-0.491525 215:-0.975758 216:-0.897436 217:-0.486726 218:0.0948276 219:0.515152 220:0.352273 221:-0.477124 222:-0.679012 223:-0.944444 224:-0.345455 225:-0.583333 226:0.0673077 227:-0.669565 228:-0.780822 229:-0.754386 230:-0.634921 231:-0.862745 232:-0.714286 233:0.115385 234:-0.589744 235:-0.115385 236:-0.762712 237:-0.72 238:-0.142857 239:-0.54386 240:-0.398374 241:-0.423423 242:-0.608696 243:-0.52381 244:-0.6 245:-0.28 246:-0.212121 247:-0.25 248:-0.214286 249:-0.04 250:0.37931 251:-0.226667 252:-0.197183 253:0.406699 254:0.213675 255:0.125628 257:-0.117647 258:-0.170213 259:-0.732143 260:-0.450704 261:-0.678832 262:-0.294118 263:0.465347 264:-0.09375 265:-0.29697 266:-0.943503 267:0.0535714 268:-0.461538 269:-0.791045 270:-0.333333 271:-0.392405 272:-0.276382 273:-0.87013 274:-0.0847458 275:-0.882979 276:-0.978261 277:0.0833333 278:-0.0253807 279:-0.0742857 280:-0.0273224 281:-0.361905 282:-0.42268 283:-0.509434 284:-0.357143 285:-0.444444 286:0.0714286 287:-0.651613 288:-0.670886 289:-0.532995 290:-0.846995 291:-0.436782 292:-0.623188 293:-0.388235 294:0.08 295:-0.357143 296:-0.454545 297:-0.0882353 298:-0.8125 299:-0.588785 300:-0.633803 301:-0.915966 302:-0.830986 303:1 304:0.137931 305:-0.581395 306:0.4 307:-0.2 308:0.4375 309:0.4375 310:-0.724138 311:-0.415385 312:-0.515152 313:-0.412844 314:-0.451327 315:-0.616667 316:-0.591837 317:-0.111111 318:-0.768116 319:-0.666667 320:-0.777778 321:0.21519 322:1 323:0.847458 324:0.440559 325:-0.692308 326:0.703704 327:-0.0833333 328:0.0566038 329:-0.37931 330:1 331:1 332:-0.826087 333:-1 334:-0.703704 335:-0.363636 336:-0.675676 337:0.930233 338:-0.35 339:-0.425641 340:-0.370213 341:-0.934156 342:-0.53125 343:0.822222 344:-0.696 345:-0.513514 346:-0.910204 347:-0.690323 348:-0.657143 349:-0.759398 350:-0.651007 351:-0.422535 352:-0.148515 353:-0.354839 354:-0.304348 355:-0.625 356:-0.846154 357:-0.933333 358:-0.529412 359:0.28125 360:-0.438202 361:-0.926702 362:-0.909091 363:1 364:0.176471 365:-0.458333 366:0.047619 367:-0.842105 368:-0.677419 370:0.25 371:-0.728814 372:-0.283951 373:0.45098 374:-0.836735 375:-0.547445 376:-0.452055 377:0.173913 378:-0.3125 379:-0.384615 380:-0.576471 381:-0.595238 382:-0.75 383:0.363057 384:0.770833 385:-0.686869 386:-0.380952 387:-0.478261 388:-0.239437 389:-0.568966 390:1 391:0.509434 392:-0.503546 393:-0.666667 394:-0.235294 395:-0.729167 396:-0.638889 397:1 398:-0.903614 399:-0.50211 400:0.209486 401:-0.848101 402:-0.6 403:-0.84 404:0.016129 405:-0.444444 406:-0.45082 407:-0.989848 408:-0.766667 409:-0.795455 410:-0.744898 411:-0.508021 412:-0.523077 413:0.862069 414:0.0526316 415:-0.2 416:-0.755102 417:-0.839506 418:-0.787611 419:-0.214286 420:-0.773196 421:-0.822222 422:-0.985714 423:-0.173913 424:-0.172414 425:-0.545455 426:-0.0833333 427:-0.515152 428:-0.809524 429:-0.04 430:-0.837838 431:-1 432:-0.259259 433:-0.924051 434:0.655556 435:-0.010989 436:0.2 437:-0.5 438:-0.675676 439:-0.382353 440:0.428571 441:-0.608696 442:-0.764706 443:-0.100592 444:-0.815029 445:0.0175439 446:-0.0625 447:-0.304348 448:-0.210526 449:0.241379 450:0.384615 451:0.0666667 452:0.489362 453:-0.698925 454:-0.655172 455:-0.978947 456:-0.795455 457:-0.166667 458:-0.56044 459:-0.313808 460:0.0956522 461:-0.842105 462:-0.868852 463:-0.836066 464:-0.142857 465:-0.365854 466:-0.219298 467:-0.868852 468:-0.326733 469:-0.700855 470:-0.87234 471:-0.859155 472:-0.676471 473:0.025641 474:-0.365854 475:-0.448276 476:-0.846154 477:-0.870504 478:-0.531915 479:-0.368421 480:-0.657143 481:-0.802575 482:-0.817143 483:-0.87013 484:-0.459459 485:0.0434783 486:-0.75 487:-0.833333 488:-1 489:-0.241379 490:-0.428571 491:-0.925926 492:-0.5625 493:0.120879 494:-0.24878 495:-0.108911 496:0.103448 497:-0.630769 498:-0.68932 499:-0.56 500:0.333333 501:-0.580952 502:-0.896104 503:0.95082 504:0.742574 505:0.387097 506:-0.88764 507:-0.0204082 508:-0.677966 509:-0.0505051 510:-0.966102 511:-0.842697 512:0.194631 513:-0.728155 514:-0.272727 515:-0.762712 516:-0.707865 517:0.421488 518:-0.383333 519:-0.253112 520:-0.208889 521:-0.546392 522:-0.923077 523:-0.767442 524:-0.257732 525:-0.208791 526:-0.0212766 527:-0.890909 528:-0.985714 529:-0.99 530:-0.826484 531:-0.921053 532:-0.734266 533:-0.283582 534:0.111111 535:-0.377778 536:-0.64 537:-0.6 538:-0.54 539:-0.458824 540:-0.977528 541:-0.719149 542:-0.915152 543:-0.729167 544:-0.578947 545:-0.55 546:-0.589744 547:-0.849057 548:-0.789474 549:-0.625 550:-0.428571 551:-0.591837 552:0.611111 553:0.889503 554:0.94152 555:0.725 556:0.206107 557:-0.472527 558:-0.345794 559:-0.0983607 560:0.586207 561:-0.555556 562:-0.590361 563:0.932039 564:0.244681 565:0.163043 566:-0.722772 567:-0.666667 568:-0.714286 569:-0.384615 570:-0.0649351 571:-0.557895 572:0.580952 573:-0.83871 574:-0.710843 575:-0.820225 576:-1 577:0.160494 578:-0.0469799 579:-0.133333 580:-0.272727 581:-0.752294 582:-1 583:-0.550562 584:-0.553719 585:-0.325153 587:-0.891473 588:-0.394737 589:-0.798942 590:-0.587156 591:-0.862069 592:-0.699248 593:-0.97561 594:-0.606557 595:-0.64 596:-0.924528 597:-0.765766 598:-0.941606 599:-0.76378 600:-0.707317 601:-0.457143 602:-0.928571 603:0.210526 604:-0.674419 605:-0.92 606:-0.25 607:-0.793103 609:-0.142857 610:-0.662651 611:-0.625 612:-1 613:-0.797468 614:-0.513514 615:-0.48 616:-0.607143 617:-0.488372 618:-0.276596 619:-0.647059 620:-0.890909 621:-0.684211 622:-0.333333 623:0.0175439 624:0.852941 625:-0.230769 626:-0.6 627:-0.494949 629:-0.483871 630:1 631:-0.206897 632:-0.233333 633:0.148936 634:-0.772727 635:-0.652174 636:-0.2 637:0.591837 638:0.0120482 639:-0.616162 640:-0.92 641:-0.990476 642:-0.84 643:-0.8 644:-0.883041 645:-0.333333 646:-0.412844 647:-0.661972 648:-0.552941 649:-0.763889 650:-0.513043 651:0.672131 652:0.802817 653:-0.236364 654:-0.413793 655:-0.487179 656:-0.553398 657:-0.853403 658:-0.482517 659:-0.708738 660:-0.478261 661:-0.661017 662:-0.972222 663:-0.202614 664:-0.333333 665:-0.804878 666:-0.157895 667:-0.652174 668:-0.481481 669:-0.75 670:-0.578947 671:-0.755102 672:-0.746835 673:-0.75 674:0.540541 675:-0.384615 676:-0.463415 677:-0.833333 678:-0.816794 679:0.388889 680:-0.866667 681:-0.692308 682:-0.888889 683:-0.0909091 684:0.0813953 685:-0.489362 686:-0.703704 687:-0.6 688:-0.789474 689:-0.0909091 690:1 691:0.276596 692:-0.178947 693:-0.433962 694:-0.333333 695:-0.604938 696:-0.935484 697:1 698:-0.512195 699:-0.844961 700:-0.731602 701:-0.835165 702:-0.512195 703:-0.915254 704:-0.251337 705:-0.581395 706:-0.462069 707:-0.898734 708:-0.333333 709:-0.734266 710:-0.537572 711:-0.797235 712:-0.655914 713:-0.553398 714:-0.578947 715:-1 716:-0.833333 717:-0.846847 718:-0.417219 719:-0.0392157 720:-0.268293 721:-0.311828 722:-0.872549 723:-0.246753 724:-0.347826 725:-0.871795 726:-0.28 727:-0.6 728:-0.75 729:-0.466667 730:-0.5 731:-0.885057 732:-0.747573 733:-0.555556 734:-0.381443 735:-0.647059 736:-0.460317 737:-0.384615 738:-0.62 739:-1 740:-0.585586 741:-0.604651 742:-0.617647 743:-0.309353 744:0.461538 745:-0.492537 746:-0.619048 747:-0.465347 748:-0.435897 749:-0.67619 750:-0.121951 751:-0.3 752:-0.765363 753:-0.910448 754:-0.511111 755:-0.731343 756:-0.872727 757:0.176471 758:-0.463768 759:-0.5 760:-0.68559 761:-0.747126 762:-0.689655 763:-0.922078 764:-0.255556 765:-0.968254 766:-0.990385 767:-1 768:-0.247863 769:-0.743316 770:-0.777778 771:-0.689119 772:-0.281553 773:0.294118 774:-0.375 775:-0.34375 776:-0.6 777:-0.764706 778:-0.839506 779:-0.246753 780:-0.219512 781:-0.8 782:-0.484163 783:-0.356643 784:-0.783333 785:-0.860465 786:-0.736842 787:-0.944444 788:-0.785714 789:-0.478261 790:-0.5625 791:-0.893617 792:-0.849315 793:-0.789474 794:-0.556886 795:-0.432836 796:-0.0769231 797:-0.0526316 798:-0.0617284 799:-0.2 800:0.425287 801:-0.8 802:-1 803:0.076087 804:-0.0634146 805:-0.00990099 806:-0.821429 807:-0.565217 808:-0.829268 809:-0.489796 810:-0.783784 811:-0.921053 812:-0.393939 813:-0.875 814:-0.837209 815:-1 816:-1 817:-0.550802 818:-0.947368 819:-0.426966 820:-0.401786 821:-0.374233 822:-0.670588 823:-0.945205 824:-0.158537 825:-0.795918 826:-0.0531401 827:-0.578947 828:-0.709091 829:-0.555556 830:-0.489177 831:-0.328 832:-0.775701 833:-0.32 834:-0.278689 835:-0.894737 836:-0.974684 837:-0.539683 838:-0.0752688 839:-0.418182 840:0.0769231 841:-0.736842 842:-0.123894 843:-0.136095 844:-0.714286 845:-0.755102 846:-0.4375 847:-0.833333 848:-0.487179 849:-0.5 850:-0.210526 851:-0.514563 852:-0.795699 853:0.0326797 854:-0.194444 855:-0.602041 856:0.166667 857:-0.518519 858:-0.804511 859:0.0117647 860:-0.481481 861:-0.5 862:-0.485714 863:-0.52 864:-0.175439 865:-0.309524 866:-0.705882 867:-0.471698 868:-0.952 869:-0.307692 870:-1 871:-0.948276 872:-0.802198 873:0.0588235 874:-0.221053 875:0.26 876:0.0804598 877:0.0309278 878:-0.288462 879:-0.260116 880:-0.128205 881:-0.212121 882:-0.237288 883:-0.724551 884:-0.165563 885:-0.363636 886:-0.194915 887:0.206107 888:-0.735683 889:-0.511962 890:0.00909091 891:0.227513 892:0.208054 893:0.526718 894:0.168539 895:0.0833333 896:-0.227723 897:0.24 898:-0.672727 899:-0.646512 900:-0.743119 901:-0.467742 902:-0.865169 903:-0.0285714 904:-0.481481 905:-0.94012 906:-0.960396 907:-0.234043 908:-0.931034 909:-0.708861 910:-0.905759 911:-0.549296 912:-0.608696 913:-1 914:-0.82906 915:-0.507937 916:-0.12 917:-0.723404 918:-0.0212766 919:-0.891892 920:-0.222222 921:-0.142857 922:-0.45098 923:-0.214286 924:-0.2 925:-0.591837 926:0.0909091 927:-0.857143 928:-0.387097 929:-0.692308 930:0.0357143 931:-0.773196 932:-0.521739 933:-0.333333 934:-0.433333 935:-0.296296 936:0.136364 937:-0.47619 938:-0.58 939:-0.793103 940:-0.323944 941:-0.823293 942:-0.626667 943:-0.875 944:-0.903226 945:0.446809 946:-0.244898 947:-0.707317 948:-0.622642 949:-0.896104 950:0.699248 951:1 953:0.415094 954:0.398058 955:-0.674699 956:-0.813333 957:-0.29927 958:-0.538462 959:-0.279279 960:-0.509677 961:-0.572414 962:-0.666667 963:0.0434783 964:-0.112903 965:-0.899083 966:-0.675 967:-0.61194 968:-0.768786 969:-0.832335 970:-0.691057 971:-0.316456 972:-0.622642 973:-0.787234 974:-0.766667 975:-0.395833 976:-0.296296 977:-0.821138 978:-0.708738 979:-0.885714 980:-0.605634 981:-0.714286 982:-0.0434783 983:-0.189189 984:0.911765 985:0.287671 986:0.170732 987:-1 988:-0.72093 989:0.272727 990:1 991:-0.515152 992:0.0505051 993:-0.632653 994:-0.888889 995:-0.580247 996:-0.125 997:1 998:-0.465517 999:0.647059 1000:-0.0434783 1001:-0.27027 1002:-0.16129 1003:-0.823529 1004:-0.827273 1005:-0.518072 1006:-0.168317 1007:-0.492537 1008:-0.465649 1009:-0.784314 1010:0.179283 1011:0.422414 1012:-0.217949 1013:-0.531915 1014:0.0181818 1015:-0.333333 1016:-0.84466 1017:-0.444444 1018:-0.122995 1019:0.030303 1020:-0.796407 1021:-0.101124 1022:0.363636 1023:0.0526316 1024:-0.793103 1025:-0.961353 1026:-0.651163 1027:-0.904 1028:-0.852814 1029:-0.927602 1030:-0.888889 1031:-0.851852 1032:-0.410853 1033:-0.398058 1034:-0.568282 1035:-0.580645 1036:-0.340206 1037:-0.746269 1038:-0.694656 1039:-0.418182 1040:-0.236364 1041:-0.93617 1042:-0.857143 1043:0.792208 1044:0.582609 1045:0.69697 1046:-0.773585 1047:-0.962617 1048:-0.56391 1049:1 1050:0.733333 1051:-0.254902 1052:0.159236 1053:-0.421053 1054:-0.387097 1055:-0.0973451 1056:-0.0649351 1057:1 1058:-0.417219 1059:0.646154 1060:1 1061:-0.488636 1062:-0.933333 1063:-0.934426 1064:-0.0630631 1065:-0.428571 1066:0.820513 1067:-1 1068:-0.32973 1069:0.186441 1070:-0.241667 1071:-0.773399 1072:-0.341176 1073:-0.0227273 1074:-0.0654206 1075:-0.474576 1076:-0.839506 1077:-0.829268 1078:-0.665236 1079:-0.516667 1080:-0.838298 1081:0.0714286 1082:-1 1083:0.0588235 1084:-0.788462 1085:-0.800905 1086:-0.918367 1087:-0.957219 1088:-0.914894 1089:-0.88 1090:-0.684211 1091:-0.890909 1092:-0.662651 1093:-0.243243 1094:0.197802 1095:0.279503 1096:0.647059 1097:1 1098:-0.21 1099:1 1100:1 1101:-0.918605 1102:-0.946429 1103:0.113636 1104:-0.328671 1105:0.0512821 1106:-0.924528 1107:-0.895197 1108:-0.6 1109:-0.0947368 1110:-0.156863 1111:-0.583333 1112:1 1113:0.538462 1114:-0.324138 1115:-0.654545 1116:0.142857 1117:-0.93007 1118:-0.596154 1119:1 1120:1 1121:-0.596413 1122:-0.982609 1123:-1 1124:-0.751479 1125:-0.505882 1126:0.614973 1127:-0.915344 1128:-0.285106 1129:0.330435 1130:0.508333 1131:0.0862069 1132:-0.211111 1133:-0.204082 1134:-0.489362 1135:-0.357143 1136:-0.55814 1137:-0.145946 1138:-0.214286 1139:-0.567568 1140:-0.93722 1141:-0.381295 1142:1 1143:0.653465 1144:-0.492537 1145:-0.6 1146:-0.88535 1147:-0.961905 1148:-0.968127 1149:-0.868313 1150:-0.577982 1151:-0.734694 1152:-0.467626 1153:0.508772 1154:0.373737 1155:-0.742268 1156:-0.345133 1157:-1 1158:-0.765625 1159:0.261538 1160:-0.0561798 1161:-0.707865 1162:-0.606838 1163:-0.256198 1164:-0.124088 1165:-0.027027 1166:-0.932886 1167:-0.773756 1168:-0.774194 1169:-0.423077 1170:-0.830508 1171:-0.744361 1172:1 1173:-0.228916 1174:-0.663717 1175:0.244898 1176:-0.191919 1177:-0.0428571 1178:-0.101124 1179:0.30137 1180:0.91716 1181:0.753846 1182:-0.202454 1183:-0.0909091 1184:0.159664 1185:-0.574803 1186:1 1187:0.755396 1188:0.768707 1189:0.945355 1190:0.847534 1191:0.710526 1192:0.690141 1193:0.613333 1195:-0.25 1197:0.51773 1198:0.580645 1199:0.479592 1200:-0.796178 1201:0.181818 1202:-0.883721 1203:1 1204:0.423423 1205:-0.863354 1206:-0.0175439 1207:-0.190476 1208:-0.6 1209:-0.944828 1210:-0.578947 1211:-0.827869 1212:-0.737374 1213:-0.444444 1214:-0.974522 1215:0.129412 1216:-0.424242 1217:-0.702128 1219:-0.488372 1220:0.166667 1221:-0.371429 1222:-0.135802 1223:-0.507692 1224:-0.359223 1225:-0.0833333 1226:-0.517241 1227:-0.714286 1228:-0.911765 1229:-0.625 1230:0.408451 1231:-0.8125 1232:0.478261 1233:-0.653846 1234:-0.246377 1235:0.515152 1236:-0.741935 1237:-0.862069 1238:-0.356322 1239:-0.723404 1240:-0.589041 1241:-0.146341 1242:-0.568182 1243:-0.509434 1244:-0.84 1245:-1 1246:-0.253333 1247:-0.728814 1248:-0.467532 1249:-0.853659 1250:-0.828054 1251:-0.229167 1252:-0.16129 1253:0.316872 1254:-0.747573 1255:-0.942584 1256:-0.966527 1257:-0.82906 1258:-0.488584 1259:-0.75 1260:-0.956522 1261:0.75 1262:-0.944444 1263:1 1264:0.384615 1265:-0.808219 1266:-0.605634 1267:-0.885714 1268:-0.880597 1269:-0.632184 1270:-0.530201 1271:-0.784861 1272:-0.480916 1273:-0.980296 1274:-0.839416 1275:0.44186 1276:0.333333 1277:-0.458824 1278:-0.0731707 1279:0.318182 1280:1 1281:-0.64 1282:-0.730769 1283:-0.508772 1284:0.58209 1285:0.320755 1286:0.155556 1287:-0.710692 1288:-0.669725 1289:1 1290:-0.142857 1291:-0.608696 1292:0.333333 1293:0.413793 1294:0.488372 1295:0.793103 1296:0.621622 1297:0.272727 1298:-0.961538 1299:0.25 1300:0.103448 1301:0.985915 1302:1 1303:0.714286 1304:-0.691542 1305:-0.25641 1306:0.195402 1307:0.74026 1308:-0.694737 1309:-0.577889 1310:0.449393 1311:-0.186441 1312:0.564103 1313:0.352 1314:-0.376238 1315:-0.885463 1316:-0.932489 1317:-0.905579 1318:-0.241706 1319:-0.583333 1320:-0.773399 1321:-0.801653 1322:-0.75 1323:-0.0338983 1324:-0.742331 1325:-0.79661 1326:-0.844961 1327:-0.951807 1328:-0.931624 1329:-0.79798 1330:-0.606557 1331:-1 1332:-0.696552 1333:-0.333333 1334:-0.881356 1335:-0.697842 1336:-0.571429 1337:-0.710983 1338:-0.272727 1339:-0.753846 1340:-0.552632 1341:-1 1342:-0.806452 1343:0.190476 1344:0.148148 1345:0.24 1346:-1 1347:-0.658915 1348:-0.814815 1349:0.375 1350:-0.242424 1351:-0.756098 1352:-0.292517 1353:-0.602941 1354:0.28 1355:-0.805825 1356:-0.435484 1357:0.772727 1358:-0.159091 1359:-0.780822 1360:-0.234043 1361:1 1362:1 1363:-0.1 1364:-0.538462 1365:-0.418605 1366:0.980392 1367:1 1368:-0.858156 1369:-0.683761 1370:-0.669421 1371:-0.330579 1372:0.35 1373:0.330357 1374:-0.441176 1375:-0.669725 1376:-0.798387 1377:-0.918033 1378:-1 1379:-0.874396 1380:-0.777778 1381:-0.786667 1382:0.241379 1383:-0.377778 1384:-0.76 1385:-0.977778 1386:-0.830508 1387:-0.756098 1388:-0.662338 1389:-0.452055 1390:-0.468927 1391:-0.439024 1392:-0.496599 1393:-0.440367 1394:-0.395973 1395:-0.274074 1396:-0.214953 1397:-0.962617 1398:-0.0461538 1399:-0.7 1400:-0.488722 1401:-0.461538 1402:-0.813333 1403:-0.11828 1404:-0.793103 1405:-0.675676 1406:-0.859155 1407:-0.9375 1408:-0.311111 1409:-0.413333 1410:-0.0285714 1411:-0.608392 1412:-0.532468 1413:-0.328125 1414:-0.97561 1415:0.238095 1416:-0.579832 1417:-0.538462 1418:-0.363636 1419:-0.5 1420:-0.827957 1421:1 1422:-0.365854 1423:0.108696 1424:-0.65812 1425:-0.842105 1426:0.211538 1427:0.109091 1428:-0.947368 1429:-0.356784 1430:0.201681 1431:0.683761 1432:0.677083 1433:0.386047 1434:0.0844444 1435:-0.61435 1436:-0.747748 1437:-0.768421 1438:-0.766667 1439:-0.885167 1440:-0.88785 1441:-0.46875 1442:-0.454545 1443:0.02 1444:-0.550296 1445:-0.567568 1446:-0.870588 1447:-0.857143 1448:-0.685714 1449:-0.257862 1450:-0.402985 1451:-0.923913 1452:-1 1453:-1 1454:-0.573034 1455:-0.505376 1456:-0.137615 1457:-0.53271 1458:-0.806452 1459:-0.968085 1460:-0.527273 1461:-0.709677 1463:-0.592593 1464:0.00699301 1465:-0.392157 1466:-0.674419 1467:-0.731092 1468:-0.46988 1469:-0.4 1470:-0.588235 1471:-0.25641 1472:-0.156463 1473:-0.317757 1474:0.142857 1475:-0.368421 1476:-0.0631579 1477:0.359223 1478:-0.0598291 1479:0.268571 1480:0.0752688 1481:0.711712 1482:-0.0439024 1483:-0.0615385 1484:-0.228346 1485:0.116279 1486:0.703349 1487:0.502538 1488:-1 1489:-0.0794979 1490:0.756522 1491:0.680672 1492:0.741071 1493:0.230769 1494:-0.628959 1495:-0.392523 1496:0.0252101 1497:0.0859729 1498:0.0434783 1499:-0.865854 1500:-0.946667 1501:0.0952381 1502:-0.949367 1503:1 1504:-0.894737 1505:-0.746269 1506:0.473684 1507:0.846154 1508:0.615385 1509:-0.794872 1510:-0.880952 1511:-0.726027 1512:-0.929577 1513:-0.895735 1514:-0.831776 1515:-0.875 1516:-0.361702 1517:0.485714 1518:-0.452055 1519:-0.357143 1520:1 1521:-0.72 1522:-0.846154 1523:1 1524:-0.545455 1525:-0.314286 1526:0.0847458 1527:0.131579 1528:-0.283019 1529:-0.428571 1530:1 1531:0.76 1532:-0.772727 1533:-0.466667 1534:0.659574 1535:0.127273 1536:0.276596 1537:1 1538:-0.6 1539:-0.152542 1540:-0.890909 1541:-0.848341 1542:-0.351351 1543:-0.388889 1544:-0.914634 1545:-0.320755 1546:0.52381 1547:-0.643836 1549:0.615385 1550:0.147287 1551:-0.631579 1552:0.149701 1553:-0.701613 1554:-0.804444 1555:-0.876289 1556:-0.894737 1557:-0.593023 1558:-0.854545 1559:0.408451 1560:-0.590909 1561:-0.333333 1562:-0.846154 1563:0.727273 1564:-0.466667 1565:-0.557895 1566:-0.333333 1567:-0.714286 1568:-0.652174 1569:-0.810811 1570:-0.764192 1571:-0.83908 1572:-0.958763 1573:-0.84127 1574:-0.67033 1575:-0.431373 1576:-0.925234 1577:-0.396825 1578:-0.878049 1579:-0.623529 1580:1 1581:-0.672727 1582:-0.54 1583:-0.363636 1584:-0.219512 1585:-0.444444 1586:-0.535714 1587:0.047619 1588:-0.621622 1589:-0.737705 1590:-0.263158 1591:-0.764706 1592:0.630435 1593:-0.117647 1594:0.508197 1595:0.230769 1596:0.719298 1597:-0.422222 1598:-0.865031 1599:-0.297297 1600:-0.454545 1601:-0.722892 1602:0.444444 1603:0.5 1604:-1 1605:-0.0175439 1606:-0.547826 1607:-1 1608:1 1609:0.59375 1610:0.72093 1611:-0.776119 1612:0.527273 1613:-0.766667 1614:-0.712919 1615:-0.869159 1616:-0.772152 1617:-0.472 1618:0.654545 1619:-0.4 1620:-0.777778 1621:0.9 1622:-0.726027 1623:-0.583333 1624:0.0645161 1625:-0.581395 1626:-0.75 1627:-0.974026 1628:-0.931624 1629:-0.833333 1630:-0.632479 1631:-0.934783 1632:-0.558011 1633:-0.762712 1634:-0.740541 1635:-0.504 1636:-0.3125 1637:-0.958333 1638:-0.608108 1639:0.209877 1640:1 1641:-0.804348 1642:-0.846154 1643:-0.469388 1644:-0.671642 1645:-0.325 1646:-0.892308 1647:0.0232558 1648:-0.483871 1649:0.305556 1650:-0.616438 1651:-0.615385 1652:0.010101 1653:-0.00952381 1654:1 1655:-0.477477 1656:-0.0689655 1657:-0.0461538 1658:0.252525 1659:-0.452055 1660:-0.451613 1661:-0.365854 1662:1 1663:0.16129 1664:-0.925466 1665:0.0361446 1666:-0.681159 1667:0.0642202 1668:0.684211 1669:0.888889 1670:0.927273 1671:-0.836735 1672:-0.22293 1673:-0.113208 1674:-0.253333 1675:-0.736842 1676:-0.881818 1677:-0.91716 1678:-0.589744 1679:-0.625 1680:-0.885714 1681:1 1682:-0.555556 1683:-0.789474 1684:-0.132075 1685:-0.547619 1686:-0.411765 1687:-0.92 1688:-0.783784 1689:-0.186441 1690:-0.704918 1691:-1 1692:-0.773585 1693:-0.863636 1694:-0.628319 1695:-0.264706 1696:-0.445161 1697:-0.0518519 1698:0.0298507 1699:-0.474576 1700:0.15493 1701:-0.266667 1702:-0.636364 1703:-0.0461538 1704:0.111111 1705:-0.32 1706:-0.823529 1707:0.16129 1708:-0.761905 1709:-0.461538 1710:-0.911111 1711:-0.803922 1712:-0.045045 1713:0.0980392 1714:0.345133 1715:0.566667 1716:0.487805 1717:0.193548 1718:-0.342105 1719:-0.346939 1720:0.255814 1721:-0.714286 1722:0.536 1723:0.0166667 1724:-0.660714 1725:0.0322581 1726:0.121212 1727:0.178808 1728:-0.471698 1729:0.39759 1730:-0.146853 1731:-0.689119 1732:-0.372197 1733:0.474359 1734:0.00414938 1735:-0.16129 1736:-0.495798 1737:-0.67619 1738:-0.371069 1739:-0.168539 1740:-0.333333 1741:0.0163934 1742:0.162162 1743:0.16 1744:-0.756757 1745:-0.682692 1746:-0.258065 1747:-0.706897 1748:-0.776398 1749:-0.455446 1750:-0.708333 1751:-0.576577 1752:-0.611111 1753:-0.602837 1754:-0.594937 1755:-0.308271 1756:-0.131034 1757:-0.465649 1758:-0.514851 1759:-0.107914 1760:0.033557 1761:-0.45 1762:-0.395349 1763:-0.642857 1764:-0.238095 1766:-0.457944 1767:-0.25 1768:-0.75 1769:-0.164179 1770:0.314286 1771:-0.319149 1772:-0.5 1773:-0.821918 1774:-0.938326 1775:-0.901639 1776:-0.803468 1777:-0.107914 1778:0.176471 1779:-0.22314 1780:0.0921053 1781:0.616162 1782:0.620253 1783:-0.188811 1784:-0.0206897 1785:-0.726872 1786:0.836478 1787:0.923077 1788:1 1789:0.958042 1790:1 1791:1 1792:1 1793:0.636364 1794:0.300412 1795:0.047619 1796:-0.253112 1797:0.0531915 1798:0.621622 1799:0.730159 1800:-0.0204082 1801:-0.659574 1802:-0.97619 1803:-0.75 1804:-0.490909 1805:-0.898734 1806:-0.571429 1807:0.0769231 1808:-0.666667 1809:-0.0833333 1810:-0.846154 1811:-0.69697 1812:-0.421687 1813:-0.864198 1814:-0.526316 1815:-0.695652 1816:-0.444444 1817:-0.942857 1818:-0.731343 1819:-0.622642 1820:0.258065 1821:-0.384615 1822:-0.567568 1823:-0.25 1824:0.3 1825:-0.857143 1826:-0.681818 1827:0.192982 1828:-0.583333 1829:-1 1830:0.151515 1831:-0.622642 1832:-0.230769 1833:-0.552941 1834:0.0212766 1835:-0.380952 1836:-0.469388 1837:-0.117647 1838:-0.673203 1839:-0.911111 1840:-0.827586 1841:-0.96875 1842:-0.818182 1843:-0.75 1844:-0.944444 1845:-0.241379 1846:-0.896552 1847:-0.880795 1848:0.565217 1849:1 1850:0.513514 1851:-0.257143 1852:0.176471 1853:-0.235294 1854:-0.6 1855:-0.958333 1856:-0.744186 1857:-0.775 1858:-0.903226 1859:1 1860:-0.128205 1861:0.0416667 1862:-0.85 1863:-0.0769231 1864:-0.0588235 1865:-0.75 1866:-0.384615 1867:-0.4 1868:-0.310345 1869:-0.888889 1870:-0.884058 1871:-0.744186 1872:-0.897436 1873:-0.625806 1874:-0.902439 1875:-0.670886 1876:-0.555556 1877:-0.914286 1878:-0.662651 1879:-0.431818 1880:-0.265306 1881:-0.836735 1882:-0.897959 1883:-0.52381 1884:1 1885:-0.970149 1886:-1 1887:-0.0769231 1888:-0.567568 1889:-0.483871 1890:-0.304348 1891:-0.241379 1892:-0.622222 1893:-0.576271 1894:-0.578947 1895:-0.517241 1896:0.0434783 1897:0.189189 1898:-0.0784314 1899:-0.659574 1900:-0.741935 1901:-1 1902:-0.64 1903:-0.310345 1904:-1 1905:-0.740741 1906:-0.730337 1907:-0.888889 1908:0.047619 1909:0.623188 1910:-0.454545 1911:-0.677419 1913:-0.65 1914:-0.925926 1915:-0.798319 1916:-0.890625 1917:-0.679012 1918:0.111111 1919:0.64557 1920:-0.458333 1921:0.115385 1922:-0.846154 1923:-0.8 1924:-0.565217 1925:-0.487179 1926:-0.733333 1927:-0.6 1928:-0.83871 1929:-0.896552 1930:-0.873418 1931:-0.710145 1932:-0.801418 1933:-0.419753 1934:-0.431034 1935:-0.395973 1936:-0.52381 1937:-1 1938:-0.870968 1939:-0.6375 1940:-0.0596026 1941:-0.670886 1942:-0.803571 1943:-0.241379 1944:-0.0526316 1945:-0.663717 1946:-0.879699 1947:0.483871 1948:-0.636364 1949:-0.688889 1950:-0.483871 1951:-0.818182 1952:-0.495798 1953:-0.84 1954:-0.404255 1955:-0.714286 1956:-0.559322 1957:0.0232558 1959:-0.380282 1960:-0.321429 1961:-0.643411 1962:-0.371429 1963:-0.428571 1964:-0.718519 1965:-0.653846 1966:-0.389474 1967:-0.855856 1968:0.609756 1969:1 1970:-0.355932 1971:-0.416667 1972:0.2 1973:-0.838926 1974:-0.962617 1975:-0.931034 1976:-0.94709 1977:-0.916084 1978:0.0714286 1979:0.563218 1980:0.68 1981:0.435897 1982:-0.746032 1983:-0.857143 1984:-0.707317 1985:-0.487179 1986:-0.904762 1987:-0.902439 1988:-0.840909 1989:-0.729167 1990:-0.685393 1991:-0.934426 1992:-0.640351 1993:-0.657895 1994:-0.62 1995:-0.075 1996:-0.336585 1997:0.344538 1998:0.431034 1999:-0.0322581 2000:-0.00571429 2001:-0.47619 2002:-0.852941 2003:-0.410714 2004:0.205128 2005:-0.419355 2006:-0.797468 2007:0.08 2008:-0.529412 2009:-0.0789474 2010:-0.7 2011:-0.257143 2012:0.0630631 2013:-0.276923 2014:0.432432 2015:-0.0666667 2016:-0.196429 2017:0.615385 2018:0.337143 2019:-0.829268 2020:-0.764706 2021:-0.242857 2022:-0.219512 2023:-0.473684 2024:-0.495146 2025:0.0232558 2026:-0.460526 2027:-0.44 2028:1 2029:1 2030:0.267606 2031:-0.37037 2032:-0.529412 2033:-0.685393 2034:-0.593496 2035:-0.92 2036:-0.948718 2037:-0.422222 2038:0.340909 2039:1 2040:0.132075 2041:0.142857 2042:-0.6 2043:-0.692308 2044:-0.744681 2045:0.148148 2046:-0.609756 2047:-0.962264 2048:-0.859649 2049:-0.456522 2050:-0.456522 2051:-0.756757 2052:-0.617978 2053:-0.473684 2054:-0.729167 2055:0.125 2056:-0.394231 2057:-0.548387 2058:-0.433962 2059:-0.0629371 2060:-0.258065 2061:-0.390244 2062:-0.810811 2063:-0.350427 2064:-0.0736842 2065:-0.275 2066:-0.75 2067:-0.384615 2068:-0.39726 2069:-0.0791367 2070:-0.138686 2071:-0.162791 2072:0.132743 2073:-0.084507 2074:0.524752 2075:0.392405 2076:0.258621 2077:0.4375 2078:0.186916 2079:-0.64486 2080:-0.557377 2081:-0.150685 2082:-0.791667 2083:-0.923077 2084:0.0458716 2085:0.448276 2086:-0.333333 2087:-0.822222 2088:1 2089:0.870968 2090:1 2091:0.654545 2092:-0.22973 2093:-0.755725 2094:-0.913978 2095:-0.810345 2096:-0.732394 2097:-0.196429 2098:0.235772 2099:0.118644 2100:0.22314 2101:-0.864865 2102:-0.918919 2103:0.25 2104:-0.789474 2105:-1 2106:-0.027027 2107:-0.76 2108:-0.36 2109:0.0833333 2110:-0.866667 2111:-0.761905 2112:-0.592233 2113:-0.863415 2114:-0.849057 2115:-0.958763 2116:-0.794872 2117:-0.647059 2118:-0.857143 2119:-0.724138 2120:-0.58 2121:-0.761194 2122:-0.1875 2123:-0.214286 2124:0.672131 2125:-0.381818 2126:-0.16129 2127:-0.76 2128:-0.924051 2129:-0.276596 2130:1 2131:-0.761905 2132:-0.872727 2133:-0.777778 2134:-0.375 2135:-0.432099 2136:-0.217391 2137:0.956522 2138:0.616438 2139:-0.902439 2140:-0.75 2141:-0.895954 2142:-0.769231 2143:0.222222 2144:-0.507692 2145:0.0857143 2146:-1 2147:-0.938326 2148:-0.609756 2149:-0.469388 2150:0.882353 2151:-0.181818 2152:-0.386364 2153:-0.473684 2154:-0.782609 2155:-0.774194 2156:-0.363636 2157:-0.294118 2158:-0.836735 2159:0.957447 2160:-0.354839 2161:0.311475 2162:-0.945946 2163:-0.411765 2164:-0.352941 2165:-0.894737 2166:-0.777778 2167:-0.909091 2168:-0.888889 2169:-0.294118 2170:-0.945946 2171:-0.853659 2172:-0.821138 2173:-0.525253 2174:-0.617978 2175:-0.705426 2176:-1 2177:-0.64557 2178:-0.974684 2179:-0.773585 2180:-0.641509 2181:-0.757576 2182:-0.7 2183:0.311475 2184:0.457627 2185:-0.366667 2186:-0.310345 2187:-0.815385 2188:-0.228571 2189:-0.454545 2190:-0.4375 2191:-0.16129 2192:-1 2193:-0.977778 2194:-0.931034 2195:-0.705882 2196:-0.932584 2197:-0.111111 2198:-0.33758 2199:-0.745098 2200:-0.630435 2201:-0.929293 2202:-0.764706 2203:-0.666667 2204:-0.862745 2205:-0.783784 2206:-0.596639 2207:-0.970874 2208:0.428571 2209:0.190476 2210:-0.538462 2211:-0.641026 2212:-0.75 2213:-0.179487 2214:-0.428571 2215:-0.666667 2216:-0.461538 2217:-0.527778 2218:-0.207547 2219:1 2220:0.0810811 2221:-0.469388 2222:-0.854545 2223:-0.764706 2224:-0.533333 2225:-0.615385 2226:-0.571429 2227:-1 2228:-0.166667 2229:-0.176471 2230:-0.6875 2231:-0.891892 2232:-0.925926 2233:-0.656652 2234:-0.416667 2235:-0.928571 2236:-0.844156 2237:-0.871795 2238:-0.62963 2239:-0.566265 2240:-0.753846 2241:-0.666667 2242:-0.285714 2243:-0.987097 2244:-0.780822 2245:-0.728814 2246:-0.243243 2247:-0.391304 2249:-0.807229 2250:-0.0416667 2251:0.0285714 2252:-0.903448 2253:-0.759398 2254:-0.662651 2255:-0.791667 2256:-0.754717 2257:-0.935484 2258:-0.609091 2259:-0.612613 2260:-0.583333 2261:-1 2262:-1 2263:-0.916667 2264:-0.850746 2265:-0.793103 2266:-0.733333 2267:-1 2268:-0.372549 2269:-0.392857 2270:-0.88 2271:-0.811966 2272:-0.58 2273:-0.446154 2274:-0.306122 2275:-0.4 2276:-0.586207 2277:-0.896552 2278:-0.558442 2279:0.138889 2280:-0.180723 2281:0.285714 2282:-0.902439 2283:-0.8 2284:-0.307692 2285:-0.25 2286:-1 2287:-0.904762 2288:-0.578947 2289:-0.904762 2290:-0.826087 2291:-1 2292:-0.614286 2293:-0.588235 2294:-0.651741 2295:-0.271318 2296:-0.303371 2297:-0.69697 2298:-0.617978 2299:-0.82906 2300:-0.428571 2301:0.0833333 2302:-0.454545 2303:-0.645833 2304:-0.714286 2305:-0.425287 2306:-0.25 2307:-0.659574 2308:-0.443038 2309:-0.504425 2310:-0.364706 2311:-0.166667 2312:-0.360656 2313:-1 2314:-0.643836 2315:-0.567568 2316:-0.777778 2317:-0.390476 2318:0.6621 2319:-0.14 2320:-0.216374 2321:-0.914286 2322:-0.826087 2323:-0.818182 2324:-0.777778 2325:-0.97619 2326:-0.327434 2327:-0.9 2328:-0.148936 2329:-0.86 2330:-0.831579 2331:-0.767857 2332:-0.890909 2333:-0.569231 2334:-0.719298 2335:-0.727273 2336:-0.813953 2337:-0.921053 2338:-0.482759 2339:0.28 2340:-0.626667 2341:-0.368421 2342:-0.0714286 2343:-0.833333 2344:-0.466667 2345:-0.310345 2346:-0.416667 2347:-0.741935 2348:-0.777778 2349:-0.454545 2350:-0.6 2351:-0.881188 2352:-0.0306748 2353:-0.478723 2354:-0.47561 2355:-0.47929 2356:-0.979592 2357:-0.723404 2358:-0.67033 2359:-0.306931 2360:-0.378641 2361:-0.973684 2362:-0.890909 2363:-0.508197 2364:-0.61194 2365:-0.747748 2366:-0.708738 2367:-0.307692 2368:-1 2369:-0.846154 2370:-0.893333 2371:-1 2372:-0.324675 2373:-0.814433 2374:-1 2375:-0.618182 2376:-0.78 2377:-0.469697 2378:0.870445 2379:0.360406 2380:0.266667 2381:-0.486486 2382:-0.775281 2383:-0.931034 2384:-0.940828 2385:-0.638298 2386:-0.0131004 2387:-0.831461 2388:-0.363636 2389:-0.680672 2390:-0.811765 2391:-0.85 2392:-0.688525 2393:-0.833333 2394:-0.631579 2395:-0.905882 2396:-0.643836 2397:0.3125 2398:-0.134328 2399:0.193548 
3.26128706094638 0:-0.70297 1:-0.906736 2:-0.692308 3:-0.75 4:-0.880597 5:-0.111111 7:-0.823529 8:-0.675676 9:-0.15 10:-0.36 11:-0.55 12:-0.9 13:-0.79 14:-0.626556 15:-0.787234 16:-0.764706 17:-0.333333 18:-0.588235 19:-0.288889 20:-0.457627 21:-0.238095 22:-0.923077 23:-0.507042 24:-0.490566 25:-0.454545 26:0.481481 27:-0.52381 28:0.4375 29:1 30:-0.210526 31:0.74359 32:-0.151515 33:-0.423077 34:-0.235294 35:-1 36:-0.823529 37:0.188406 38:-0.773196 39:-0.266968 40:-0.819549 41:-0.89 42:-0.863014 43:0.142857 44:-0.824818 45:-0.481481 46:-0.46988 47:-0.819672 48:-0.891892 49:-0.899441 50:-0.9 51:-0.833333 52:-0.756757 53:-0.818182 54:-0.142857 55:-0.268293 56:-0.766667 57:-0.742574 58:-0.574468 59:0.157895 60:0.303571 61:-0.849624 62:-0.807692 63:-0.157895 64:-0.806452 65:1 66:-0.636364 67:-0.466667 68:-0.724138 69:-0.444444 70:-0.833333 71:-0.836066 72:-0.752381 73:-0.897959 74:-0.781991 75:-0.908257 76:-0.971014 77:-0.694915 78:-0.972603 79:-1 80:-0.876289 81:-0.8 82:-0.363636 83:0.160494 84:0.0769231 85:-0.346939 86:-0.384615 87:-0.576923 88:-0.625 89:0.473684 90:-0.105263 91:-0.576923 92:-0.484211 93:-0.882353 94:0.04 95:-1 96:-0.852941 97:0.521739 98:-0.451613 99:0.325103 100:-0.21608 101:-0.991525 102:-0.957447 103:-0.458333 104:-0.803279 105:0.0714286 106:-0.196262 107:-1 108:-0.65 109:-0.929577 110:-0.926606 111:-0.865772 112:-0.909091 113:-0.454545 115:-0.6 116:-0.673469 117:-0.793814 118:-0.8 119:0.28 120:0.030303 121:-0.871795 122:0.2 123:1 124:-0.481481 125:1 126:-0.166667 127:0.125 128:-0.5 129:-0.166667 130:-0.157895 131:-0.784615 132:-0.549296 133:0.27957 134:-0.352941 135:-0.699248 136:-0.818182 137:-0.5 138:-0.820513 139:-0.730769 140:-0.867769 141:-0.590361 142:-0.384615 143:-0.612069 144:-0.90625 145:-0.536232 146:-0.2 147:-0.377778 148:-0.745098 149:-0.5 150:0.272727 151:-0.25 152:-0.466667 153:-0.62963 154:-0.714286 155:-0.940299 156:-0.714286 157:-0.288889 158:-0.126904 159:-0.0805687 160:-0.613861 161:-0.93133 162:-1 163:-0.9375 164:-0.85 165:-0.851852 166:-0.433628 167:-0.890411 168:-0.666667 169:-0.828125 170:-0.810345 171:-0.877863 172:-0.915493 173:-0.62963 174:-0.68 175:-1 176:-0.961538 177:-0.938462 178:-0.64 179:-0.844156 180:-0.844961 181:-0.659574 182:-0.155556 183:0.72 184:0.692308 185:-0.16129 186:-0.411765 187:-0.393939 188:-0.285714 189:-0.25 190:0.333333 191:-0.215686 192:-0.730769 193:-0.517588 194:-0.47032 195:-0.748148 196:-0.360825 197:-0.421687 198:-0.615385 199:-0.45098 200:-0.657143 201:-0.788462 202:-0.581395 203:0.357143 204:0.165877 205:0.22093 206:-0.205128 207:-0.538462 208:-0.263158 209:-0.920792 210:-0.25 211:-0.638298 212:-0.206349 213:-0.739726 214:-0.322034 215:-0.454545 216:-0.538462 217:0.0973451 218:-0.525862 219:0.808081 220:-0.0340909 221:-0.960784 222:-0.185185 223:-0.472222 224:-0.581818 225:-0.444444 226:-0.403846 227:-0.878261 228:-0.123288 229:-0.350877 230:-0.984127 231:-0.666667 232:-0.920635 233:-0.153846 234:0.025641 235:-0.461538 236:-0.59322 237:-0.68 238:-0.571429 239:-0.754386 240:-0.723577 241:-0.315315 242:-0.565217 243:-0.269841 244:0.485714 245:-0.52 246:-0.454545 247:-0.35 248:-0.0714286 249:0.12 250:0.310345 251:-0.386667 252:-0.450704 253:0.282297 254:0.025641 255:-0.487437 256:-0.719298 257:0.156863 259:-0.678571 260:-0.901408 261:-0.591241 262:-0.327731 263:0.70297 264:-0.09375 265:0.0787879 266:-0.819209 267:-0.642857 268:0.410256 269:0.0746269 270:-0.708333 271:0.113924 272:-0.0251256 273:-0.987013 274:-0.152542 275:-0.606383 276:-0.815217 277:-0.6 278:-0.0862944 279:0.131429 280:-0.387978 281:-1 282:-0.443299 283:-0.264151 284:-0.571429 285:-1 286:0.0178571 287:-0.703226 288:-0.594937 289:-0.543147 290:-0.562842 291:-0.609195 292:-0.826087 293:-0.647059 294:-0.28 295:-0.392857 296:-0.563636 297:-0.352941 298:-0.75 299:-0.383178 300:0.0704225 301:-0.680672 302:-0.183099 303:0.0909091 304:-0.62069 305:1 306:-0.333333 307:-0.933333 308:-0.375 309:-0.5625 310:1 311:-0.692308 312:-0.878788 313:-0.541284 314:-0.946903 315:-0.8 316:0.632653 317:1 318:-0.15942 319:0.428571 320:-0.0277778 321:0.139241 322:0.0588235 323:0.271186 324:1 325:-0.430769 326:-0.481481 327:-0.0416667 328:-0.0943396 329:0.586207 330:-0.898734 331:0.454545 332:-0.602484 333:0.135135 334:-0.481481 335:1 336:-0.135135 337:1 338:-0.425 339:-0.189744 340:-0.33617 341:-0.893004 342:-0.9375 343:-0.288889 344:-0.344 345:-0.72973 346:0.273469 347:-0.987097 348:-0.771429 349:-0.909774 350:-0.946309 351:-0.816901 352:-0.940594 353:-0.419355 355:-0.208333 356:-0.826923 357:-0.944444 358:-0.623529 359:1 360:0.101124 361:-0.623037 362:-0.272727 363:0.111111 364:-0.705882 365:1 366:-0.238095 367:-0.789474 368:0.0322581 369:0.818182 370:0.75 371:-0.559322 372:-0.407407 373:-0.45098 374:-0.469388 375:-0.854015 376:-0.232877 377:-0.347826 378:-0.5625 379:-0.230769 380:-0.294118 381:-0.690476 382:-0.9 383:0.235669 384:0.71875 385:-0.525253 386:-0.857143 387:-0.0434783 388:-0.211268 389:1 390:-0.460317 391:0.132075 392:-0.177305 393:-0.633333 394:0.352941 395:-0.958333 396:-1 397:0.84 398:-0.614458 399:-0.383966 400:-0.296443 401:-0.814346 402:-0.6 403:-0.52 404:-0.112903 405:0.0555556 406:0.54918 407:-0.969543 408:-0.833333 409:-0.852273 410:-0.938776 411:-0.786096 412:-0.876923 413:-0.655172 414:0.473684 415:-0.657143 416:-0.102041 417:-1 418:-0.893805 419:-0.428571 420:-0.731959 421:-0.92 422:-0.771429 423:-0.695652 424:-0.724138 425:1 426:-0.5 427:-0.757576 428:-0.619048 429:0.12 430:-0.513514 431:-0.876923 432:-0.037037 433:-0.253165 434:-0.166667 435:-0.681319 436:-0.6 437:0.727273 438:-0.027027 439:-0.5 440:-0.912088 441:-0.695652 442:-0.411765 443:-0.147929 444:-0.248555 445:0.210526 446:-0.625 447:0.73913 448:0.552632 449:0.689655 450:0.0769231 451:1 452:1 453:-0.741935 454:-0.37931 455:-0.347368 456:-0.340909 457:0.1 458:-0.472527 459:0.129707 460:0.243478 461:-0.438596 462:-0.311475 463:-0.606557 464:-0.349206 465:-0.804878 466:0.657895 467:-0.606557 468:-0.821782 469:-0.811966 470:-0.897872 471:-0.906103 472:-0.647059 473:-0.128205 474:-0.756098 475:-0.37931 476:-0.0384615 477:-0.827338 478:-0.829787 479:-0.654135 480:-0.657143 481:-0.811159 482:-0.702857 483:-0.142857 484:0.135135 485:0.217391 486:-0.75 487:-0.666667 488:-0.375 489:-0.37931 490:-0.714286 491:-0.604938 492:-0.2 493:-0.362637 494:-0.365854 495:-0.356436 496:-0.275862 497:-0.0153846 498:-0.281553 499:-0.58 500:-0.214815 501:-0.67619 502:-0.896104 503:1 504:0.990099 505:0.494624 506:-1 507:-0.22449 508:-0.152542 509:0.171717 510:0.118644 511:-0.348315 512:0.463087 513:-0.592233 514:-0.181818 515:-1 516:-0.707865 517:0.22314 518:-0.566667 519:0.618257 520:0.377778 521:-0.474227 522:-0.884615 523:-0.736434 524:-1 525:-0.142857 526:0.412766 527:-0.806061 528:-0.314286 529:-0.23 530:-0.378995 531:-0.460526 532:-0.566434 533:-0.880597 534:-0.888889 535:-0.377778 536:-0.24 537:-0.44 538:-0.48 539:-0.0352941 540:-0.820225 541:-0.957447 542:-0.987879 543:-0.8125 544:-0.157895 545:0.15 546:-0.948718 547:-0.924528 548:-0.736842 549:-0.875 550:-0.714286 551:-0.244898 552:0.416667 553:0.337017 554:-0.0877193 555:-0.0875 556:-0.480916 557:-0.604396 558:-0.271028 559:-0.47541 560:-0.431034 561:-0.555556 562:-0.445783 563:1 564:0.489362 565:0.51087 566:-0.60396 567:0.355556 568:-0.00952381 569:0.128205 570:0.220779 571:-0.0105263 572:0.67619 573:-0.806452 574:-0.975904 575:-0.123596 576:-0.561905 577:0.111111 578:-0.033557 579:0.358333 580:0.320574 581:-0.743119 582:-0.745455 583:-0.0337079 584:-0.157025 585:-0.460123 586:-0.0550459 587:-0.953488 588:-0.421053 589:-0.026455 590:-0.522936 591:-0.635468 592:-0.142857 593:-0.95122 594:-0.836066 595:-0.76 596:-1 597:-0.657658 598:-1 599:-0.669291 600:-0.390244 601:-0.714286 602:-0.714286 603:0.175439 604:-0.906977 605:-0.2 606:0.25 607:0.724138 608:-0.25 609:0.428571 610:-0.831325 611:-0.333333 612:-0.319149 613:-0.316456 614:-0.0540541 615:-0.56 616:-0.785714 617:-0.767442 618:-0.404255 619:1 620:0.163636 621:-0.815789 622:-0.380952 623:-0.54386 624:-0.0882353 625:0.487179 626:1 627:-0.373737 628:0.0526316 629:0.290323 630:-0.40625 631:-0.275862 632:0.133333 633:-0.276596 634:-0.454545 635:-0.673913 636:-0.8 637:1 638:-0.493976 639:-0.757576 640:-0.98 641:-0.6 642:-0.52 643:-0.6 644:-0.766082 645:-0.190476 646:-0.46789 647:-0.521127 648:-0.811765 649:-0.944444 650:-0.86087 651:0.606557 652:-0.577465 653:0.0545455 654:-0.275862 655:0.0512821 656:-0.864078 657:-0.759162 658:-0.622378 659:-0.436893 660:0.0724638 661:-0.694915 662:-0.555556 663:-0.30719 664:-0.8 665:0.560976 666:-0.578947 667:-0.217391 668:-0.481481 669:-0.4 670:-0.789474 671:-0.469388 672:-0.493671 673:-0.35 674:-0.702703 675:-0.78022 676:-0.560976 677:-0.761905 678:-0.908397 679:0.5 680:-0.9 681:-0.192308 682:-0.277778 683:0.0181818 684:-0.290698 685:-0.617021 686:-0.481481 687:-0.813333 688:-0.473684 689:1 690:-0.481481 691:-0.106383 692:0.0947368 693:-0.320755 694:-0.384615 695:-0.876543 696:-0.870968 697:0.278689 698:0.105691 699:-0.844961 700:-0.670996 701:-0.78022 702:-0.902439 703:-0.847458 704:-0.572193 705:-0.395349 706:-0.558621 707:-1 708:-0.509804 709:-0.594406 710:-0.583815 711:-0.741935 712:-0.763441 713:-0.805825 714:-0.473684 715:-0.758621 716:0.433333 717:-0.90991 718:-0.668874 719:0.0196078 720:0.195122 721:-0.333333 722:-0.598039 723:-0.558442 724:-0.5 725:1 726:-0.28 727:-0.777778 728:-0.45 730:-0.65 731:-0.678161 732:-0.00970874 733:0.266667 734:-0.298969 735:-0.647059 736:-0.142857 737:-0.512821 738:-0.6 739:-0.118644 740:-0.711712 741:-0.372093 742:-0.147059 743:-0.395683 744:1 745:0.432836 746:0.333333 747:-1 748:0.435897 749:1 750:0.121951 751:0.35 752:-0.240223 753:-0.373134 754:0.2 755:-0.791045 756:-0.8 757:1 758:-0.376812 759:-0.510638 760:-0.292576 761:-0.505747 762:-0.793103 763:-0.922078 764:-0.144444 765:-0.174603 766:0.480769 767:-0.81982 768:0.042735 769:-0.304813 770:-0.52657 771:-0.502591 772:-0.533981 773:0.176471 774:0.875 776:-0.1 777:-0.576471 778:-0.555556 779:0.181818 780:-0.121951 781:-0.836364 782:-0.447964 783:-0.384615 784:-0.8 785:0.0232558 786:-0.789474 787:-0.722222 788:-0.571429 789:-0.478261 790:-1 791:-0.595745 792:0.465753 793:0.0105263 794:-0.88024 795:-0.572139 796:-0.0769231 797:0.947368 798:1 799:0.127273 800:0.0114943 801:-0.52 802:-0.136364 803:1 804:1 805:1 807:0.0144928 808:0.365854 809:0.571429 810:0.135135 811:0.0526316 812:0.106061 813:-0.325 814:-0.744186 815:-0.922078 816:-0.548872 817:-0.0160428 818:-1 819:1 820:0.794643 821:0.116564 822:-0.929412 823:-0.835616 824:0.0487805 825:-0.734694 826:1 827:-0.631579 828:-0.309091 829:0.0582011 830:0.0822511 831:0.312 832:0.158879 833:-0.2 834:0.213115 835:-0.298246 836:-0.898734 837:-0.52381 838:-0.0107527 839:-0.309091 840:-0.169231 841:-0.75 842:-0.451327 843:-0.266272 844:-0.378151 845:1 846:0.25 847:-0.5 848:-0.794872 849:-0.35 851:-0.223301 852:-0.0860215 853:1 854:-0.277778 855:-0.112245 856:0.430556 857:0.407407 858:-0.413534 859:1 860:0.318519 861:-0.431818 862:-0.2 863:-0.33 864:0.105263 865:-0.0714286 866:-0.588235 867:-0.339623 868:-0.616 869:0.813187 870:0.52381 871:-0.258621 872:-0.67033 873:1 874:0.663158 875:0.18 876:-0.0344828 877:1 878:0.519231 879:0.0867052 880:0.0666667 881:-0.20202 882:-0.152542 883:-0.520958 884:0.470199 885:0.324675 886:-0.059322 887:-0.00763359 888:0.0837004 889:0.263158 890:0.636364 891:0.650794 892:0.758389 893:0.740458 894:-0.123596 895:0.458333 896:-0.188119 897:0.36 898:-0.381818 899:-0.376744 900:-0.908257 901:-0.387097 902:1 903:0.0142857 904:-0.744856 905:-0.0658683 906:-0.742574 907:-0.787234 908:-0.956897 909:-0.848101 910:-0.884817 911:0.126761 912:0.26087 913:-0.623188 914:-0.401709 915:-0.825397 916:0.68 917:-0.829787 918:-0.234043 919:0.243243 920:-0.148148 921:0.190476 922:0.0196078 923:-0.321429 924:-0.66 925:0.55102 926:0.030303 927:-0.761905 928:-0.935484 929:-0.446154 930:0.571429 931:-0.525773 932:0.0869565 933:0.490196 934:-0.3 935:-0.111111 936:-0.227273 937:-0.285714 938:-0.26 939:-0.137931 940:-0.43662 941:-0.831325 942:-0.653333 943:-0.375 944:-0.354839 945:0.702128 946:-0.755102 947:-0.219512 948:-0.937107 949:-0.207792 950:0.759398 951:-0.251799 952:0.4 953:0.188679 954:-0.669903 955:-0.373494 956:-0.626667 957:-0.824818 958:-0.706294 959:-0.873874 960:-0.845161 961:-0.37931 962:0.791667 963:1 964:-0.258065 965:-0.522936 966:-0.825 967:-0.791045 968:-0.907514 969:-0.724551 970:-0.707317 971:-0.468354 972:-0.496855 973:-0.574468 974:-0.6 975:-0.625 976:-0.37037 977:-0.544715 978:-0.223301 979:1 980:-0.521127 981:0.47619 982:0.652174 983:-0.324324 984:0.852941 985:1 986:1 987:-0.885417 988:-0.0232558 989:1 990:0.782609 991:-0.313131 992:-0.434343 993:0.0612245 994:-0.777778 995:0.0617284 996:-0.208333 997:0.612903 998:0.0517241 999:0.294118 1000:0.217391 1001:-0.256757 1002:-0.16129 1003:-0.176471 1004:-0.718182 1005:-0.204819 1006:0.00990099 1007:-0.462687 1008:-0.633588 1009:0.284314 1010:0.784861 1011:1 1012:0.910256 1013:-0.680851 1014:0.309091 1015:-0.291667 1016:-0.631068 1017:-0.432099 1018:-0.229947 1019:1 1020:-0.832335 1021:-0.606742 1022:1 1023:0.810526 1024:-0.172414 1025:-0.710145 1026:-0.953488 1027:-1 1028:-0.922078 1029:-0.918552 1030:-0.925926 1031:-0.759259 1032:-0.891473 1033:-0.242718 1034:-0.982379 1035:-0.817204 1036:-0.628866 1037:-0.761194 1038:-0.496183 1039:-0.818182 1040:-0.672727 1041:-0.617021 1043:1 1044:0.0608696 1045:0.212121 1046:-0.641509 1047:-0.813084 1048:-0.473684 1049:0.411765 1050:0.111111 1051:-0.254902 1052:-0.388535 1053:-0.526316 1054:0.0322581 1055:-0.0973451 1056:-0.0649351 1057:-0.0337079 1058:-0.629139 1059:-0.646154 1060:0.037037 1061:-0.852273 1062:-0.266667 1063:-0.770492 1064:0.144144 1065:-0.350649 1066:-0.205128 1067:-0.830189 1068:-0.027027 1069:0.449153 1070:0.0166667 1071:-0.615764 1072:-0.4 1073:-0.681818 1074:-0.53271 1075:-0.440678 1076:-0.839506 1077:-1 1078:-0.862661 1079:-0.433333 1080:-0.940426 1081:-0.214286 1082:0.23913 1083:0.813725 1084:-0.0480769 1085:-0.294118 1086:-0.918367 1087:-0.967914 1088:-0.965957 1089:-0.944 1090:-0.789474 1091:-0.836364 1092:-0.253012 1093:-0.108108 1094:-0.494505 1095:-0.478261 1096:-0.254902 1097:0.955056 1098:0.12 1099:0.567568 1100:-0.0483871 1101:-0.802326 1102:-0.678571 1103:1 1104:0.524476 1105:-0.153846 1106:-0.798742 1107:-0.851528 1108:-0.672727 1109:-0.810526 1111:-0.630952 1112:0.640625 1113:0.353846 1114:-0.310345 1115:-0.763636 1116:-0.402597 1117:-0.454545 1118:-0.538462 1119:0.0381679 1120:-0.306931 1121:-0.605381 1122:-0.808696 1123:-0.981132 1124:-0.538462 1125:-0.411765 1126:-0.572193 1127:-0.883598 1128:0.2 1129:0.478261 1130:0.5 1131:0.405172 1132:0.5 1133:0.142857 1134:-0.468085 1135:-0.446429 1136:-0.337209 1137:-0.297297 1138:-0.459184 1139:-0.459459 1140:-0.928251 1141:-0.381295 1142:-0.507246 1143:0.485149 1144:0.691542 1146:-0.707006 1147:-0.980952 1148:-0.944223 1149:-0.851852 1150:-0.614679 1151:-0.734694 1152:-0.942446 1153:-0.578947 1154:-0.393939 1155:-0.57732 1156:-0.380531 1157:-0.636364 1158:-1 1159:-0.446154 1160:-0.550562 1161:-0.865169 1162:-0.401709 1163:-0.371901 1164:-0.19708 1165:-0.261261 1166:-0.66443 1167:-0.728507 1168:-0.758065 1169:0.192308 1170:-0.847458 1171:-0.864662 1172:0.858407 1173:0.46988 1174:-0.327434 1175:1 1176:0.494949 1177:0.142857 1178:1 1179:0.890411 1180:1 1181:1 1182:0.398773 1183:0.106061 1184:0.848739 1185:-0.244094 1186:0.793427 1187:1 1188:0.755102 1189:1 1190:0.946188 1191:0.798246 1192:0.840376 1193:0.346667 1194:-0.453125 1195:-0.533333 1196:-0.129032 1197:0.276596 1198:0.537634 1199:0.683673 1200:-0.681529 1201:0.909091 1202:-0.488372 1203:-0.75 1204:-0.621622 1205:1 1206:-0.719298 1207:0.142857 1208:-0.0545455 1209:-0.627586 1210:-0.368421 1211:-0.713115 1212:-0.212121 1213:-0.0952381 1214:-0.923567 1215:-0.788235 1216:0.727273 1217:-0.595745 1218:-0.677419 1219:-0.767442 1220:1 1221:0.714286 1222:1 1223:-0.261538 1224:-0.184466 1225:-0.125 1226:0.689655 1227:-0.406593 1228:-0.941176 1229:0.75 1230:0.774648 1231:-0.645833 1232:0.869565 1233:-0.384615 1234:0.15942 1235:1 1236:0.322581 1237:1 1238:0.126437 1239:-0.702128 1240:-0.0684932 1241:-0.865854 1242:-0.795455 1243:-0.54717 1244:-0.92 1245:0.84127 1246:-0.12 1247:-0.864407 1248:-0.844156 1249:-0.453659 1250:-0.21267 1251:0.239583 1252:0.564516 1253:0.851852 1254:-0.728155 1255:-0.425837 1256:-0.832636 1257:-0.888889 1258:-0.333333 1259:-0.0909091 1260:-0.594203 1261:-0.0714286 1262:-0.583333 1263:-0.178082 1264:-0.75 1265:0.739726 1266:-0.71831 1267:-0.752381 1268:-0.641791 1269:-0.655172 1270:-0.812081 1271:-0.984064 1272:-0.755725 1273:-0.82266 1274:-0.547445 1275:-0.488372 1276:-0.0196078 1277:-0.717647 1278:-0.902439 1279:0.181818 1280:-0.212121 1281:-0.96 1282:-0.384615 1283:-0.438596 1284:-0.0746269 1285:0.584906 1286:-0.333333 1287:-0.446541 1288:-0.247706 1289:-0.1 1290:-0.657143 1291:-0.434783 1292:0.230769 1293:-0.241379 1294:-0.44186 1295:-0.471264 1296:-0.540541 1297:0.393939 1298:-0.692308 1300:-0.448276 1301:-0.309859 1302:-0.673469 1303:-0.542857 1304:-0.343284 1305:-0.487179 1306:-0.425287 1307:-0.922078 1308:-0.863158 1309:-0.417085 1310:0.206478 1311:0.144068 1312:0.623932 1313:0.912 1314:-0.227723 1315:-0.418502 1316:-0.864979 1317:-0.819742 1318:-0.478673 1319:-0.53125 1320:-0.91133 1321:-0.454545 1322:0.575 1323:-0.305085 1324:-0.840491 1325:-0.0734463 1326:-0.751938 1327:-0.987952 1328:-0.794872 1329:-0.858586 1330:-0.688525 1331:-0.72973 1332:-0.503448 1333:-0.614035 1334:-0.805085 1335:-0.884892 1336:-0.938776 1337:-0.514451 1338:0.121212 1339:-0.446154 1340:-0.802632 1341:-1 1342:-0.677419 1343:0.285714 1344:-0.0740741 1345:1 1346:-0.634409 1347:-0.829457 1348:-0.222222 1349:0.833333 1350:0.212121 1351:-0.0243902 1352:-0.741497 1353:-0.455882 1354:0.28 1355:-0.708738 1356:-0.225806 1357:0.954545 1358:-0.454545 1359:1 1360:1 1361:-0.192547 1362:0.508772 1363:-0.05 1364:-0.272727 1365:-0.0697674 1366:0.901961 1367:-0.408163 1368:-0.801418 1369:-0.213675 1370:-0.396694 1371:-0.132231 1372:0.55 1373:1 1374:-0.166667 1375:-0.0733945 1376:-0.693548 1377:-1 1378:-0.844749 1379:-0.73913 1380:-0.792593 1381:-0.36 1382:-0.206897 1383:-0.0888889 1384:-0.213333 1385:-1 1386:-0.559322 1387:-0.646341 1388:-0.688312 1389:-0.178082 1390:-0.40113 1391:-0.817073 1392:-0.564626 1393:-0.321101 1394:-0.798658 1395:-0.511111 1396:-0.962617 1397:0.607477 1398:0.169231 1399:-0.1 1400:-0.24812 1401:-0.615385 1402:-0.12 1403:-0.268817 1404:1 1405:0.189189 1406:0.267606 1407:-0.857143 1408:-0.6 1409:-0.253333 1410:-0.2 1411:-0.664336 1412:-0.0779221 1413:-1 1414:-0.926829 1415:0.111111 1416:0.411765 1417:-0.333333 1418:-0.181818 1419:-0.259259 1420:-0.784946 1421:-0.167568 1422:0.463415 1423:-0.478261 1424:0.521368 1425:-0.828947 1426:-0.596154 1427:0.0545455 1428:-0.368421 1429:-0.869347 1430:-0.10084 1431:0.273504 1432:0.927083 1433:0.693023 1434:-0.342222 1435:0.408072 1436:-0.72973 1437:-0.694737 1438:-0.755556 1439:-0.69378 1440:-0.906542 1441:-0.09375 1442:-0.181818 1443:-0.28 1444:-0.786982 1445:-0.851351 1446:-0.764706 1447:-0.730159 1448:-0.642857 1449:-0.396226 1450:-0.522388 1451:-0.913043 1452:-0.79661 1453:-0.964602 1454:-0.52809 1455:-0.204301 1456:-0.0825688 1457:-0.551402 1458:-0.537634 1459:-0.765957 1460:-0.472727 1461:-1 1462:-0.0232558 1463:-0.185185 1464:-0.342657 1465:-1 1466:-0.44186 1467:-1 1468:-0.108434 1469:0.14 1470:0.323529 1471:-0.205128 1472:-0.265306 1473:-0.82243 1474:0.21978 1475:-0.0977444 1476:-0.115789 1477:0.68932 1478:0.418803 1479:1 1480:1 1481:1 1482:0.463415 1483:-0.384615 1484:0.480315 1485:0.372093 1486:1 1487:0.654822 1488:-0.630058 1489:0.171548 1490:0.756522 1491:0.941176 1492:0.875 1493:0.504274 1494:-0.122172 1495:-0.579439 1496:0.0588235 1497:0.140271 1498:0.0326087 1499:-0.853659 1500:-0.786667 1501:-0.333333 1502:-0.443038 1503:-0.387755 1504:-0.657895 1505:0.850746 1506:-0.894737 1507:-0.230769 1508:-0.0769231 1509:-0.512821 1510:-0.833333 1511:-0.972603 1512:-0.873239 1513:-0.886256 1514:-0.53271 1515:-0.482143 1516:-0.489362 1517:-0.885714 1518:0.0684932 1519:-0.928571 1520:-0.731707 1521:-0.08 1522:0.538462 1523:-0.47619 1524:-0.5 1525:-1 1526:-0.118644 1527:1 1528:-0.396226 1529:0.314286 1530:-0.441176 1531:0.08 1532:-0.545455 1533:-0.688889 1534:0.191489 1535:-0.127273 1536:-0.446809 1537:-0.24 1538:-0.254545 1539:-0.559322 1540:0.454545 1541:-0.943128 1542:-0.0810811 1543:-0.166667 1544:-0.963415 1545:-0.0188679 1546:-0.714286 1547:-0.178082 1548:-0.529412 1549:-0.5 1550:-0.534884 1551:-0.842105 1552:-0.640719 1553:-0.120968 1554:-0.253333 1555:-0.783505 1556:-0.913876 1557:-0.465116 1558:-0.430303 1559:1 1560:-0.636364 1561:1 1562:-0.0512821 1564:-0.68 1565:0.957895 1566:-1 1567:-0.371429 1568:-0.391304 1569:-0.648649 1570:-0.947598 1571:-0.735632 1572:-0.752577 1573:-0.84127 1574:-0.472527 1575:-0.509804 1576:-0.570093 1577:-0.650794 1578:-0.536585 1579:-0.552941 1580:-0.398058 1581:-0.745455 1582:-0.84 1583:-0.136364 1584:0.0243902 1585:-0.666667 1586:-0.714286 1587:0.809524 1588:1 1589:-0.737705 1590:-0.298246 1591:1 1592:0.369565 1593:-0.235294 1594:-0.344262 1595:-0.846154 1596:0.403509 1597:0.822222 1598:0.0306748 1599:-0.027027 1600:-0.2 1601:-0.939759 1602:-0.481481 1603:-0.857143 1604:-0.845455 1605:-0.789474 1606:-0.826087 1607:-0.883495 1608:0.375 1609:-0.3125 1610:-0.790698 1611:-0.776119 1612:-0.690909 1613:-0.266667 1614:0.291866 1615:-0.915888 1616:-0.746835 1617:-0.536 1618:-0.581818 1619:1 1620:0.0740741 1621:0.9 1622:0.424658 1623:-0.583333 1624:-0.258065 1625:0.0232558 1626:-0.4375 1627:-0.948052 1628:-1 1629:-0.924242 1630:-0.717949 1631:-0.630435 1632:-0.933702 1633:-0.683616 1634:-0.772973 1635:0.328 1636:-0.0375 1637:-0.944444 1638:-1 1639:0.580247 1640:0.869159 1641:-0.586957 1642:-0.846154 1643:1 1644:0.104478 1645:0.125 1646:-0.784615 1647:1 1648:1 1649:1 1650:0.726027 1651:0.961538 1652:0.575758 1653:0.238095 1654:0.723077 1655:-0.459459 1656:-0.0862069 1657:0.815385 1658:0.79798 1659:1 1660:0.870968 1661:-0.170732 1662:-0.484848 1663:0.0322581 1664:-0.552795 1665:0.0361446 1666:0.434783 1667:-0.449541 1668:1 1669:0.37037 1670:0.309091 1671:-0.734694 1672:-0.426752 1673:0.103774 1674:0.493333 1675:-0.219298 1676:-0.818182 1677:-0.727811 1678:-0.128205 1679:1 1680:-0.657143 1681:0.870968 1682:0.444444 1683:-0.368421 1684:0.0943396 1685:-0.130952 1686:-0.117647 1687:-0.84 1688:-0.945946 1689:-0.372881 1690:-0.5 1691:-0.857143 1692:-0.924528 1693:-0.636364 1694:0.079646 1695:0.5 1696:-0.109677 1697:0.407407 1698:0.880597 1699:-0.305085 1700:0.253521 1701:-0.533333 1702:-0.545455 1703:0.538462 1704:0.925926 1705:0.28 1706:-0.529412 1707:1 1708:0.285714 1709:0.846154 1710:0.911111 1711:0.490196 1712:1 1713:0.568627 1714:1 1715:1 1716:0.878049 1717:0.806452 1718:0.184211 1719:1 1720:1 1721:0.503759 1722:0.44 1723:-0.0166667 1724:-0.928571 1725:0.693548 1726:0.80303 1727:0.245033 1728:0.132075 1729:0.108434 1730:-0.608392 1731:-0.813472 1732:-0.488789 1733:1 1734:0.443983 1735:0.483871 1736:-0.302521 1737:-0.752381 1738:-0.220126 1739:0.775281 1740:-0.0277778 1741:-0.442623 1742:-0.945946 1743:0.6 1744:-0.486486 1745:-0.307692 1747:-0.896552 1748:-0.850932 1749:-0.415842 1750:-0.5 1751:-0.432432 1752:-0.811111 1753:-0.659574 1754:-0.620253 1755:0.263158 1756:-0.0206897 1757:-0.679389 1758:-0.752475 1759:-0.438849 1760:0.0469799 1761:-0.875 1762:-0.651163 1763:-0.392857 1764:-0.555556 1765:0.0454545 1766:-0.514019 1767:0.15625 1768:0.113636 1769:0.328358 1770:0.171429 1771:0.361702 1772:-0.357143 1773:-0.506849 1774:-0.814978 1775:-0.923497 1776:-0.895954 1777:-0.0359712 1778:1 1779:0.603306 1780:0.960526 1781:0.464646 1782:-0.367089 1783:-0.300699 1784:0.517241 1785:-0.612335 1786:0.811321 1787:-0.0769231 1788:0.655914 1789:1 1790:0.858065 1791:0.496855 1792:0.175 1793:-0.020202 1794:0.119342 1795:0.350649 1796:-0.00414938 1797:0.0212766 1798:0.675676 1799:0.968254 1800:-0.55102 1801:-0.574468 1802:-0.690476 1803:-0.875 1804:-0.890909 1805:-1 1806:-0.761905 1807:-0.538462 1808:-0.0833333 1810:-0.807692 1812:-0.783133 1813:-0.765432 1814:-0.684211 1815:-0.978261 1816:-0.777778 1817:-0.885714 1818:-0.940299 1819:-0.471698 1820:-0.645161 1821:-0.846154 1822:-0.297297 1823:-0.458333 1824:-0.25 1825:-0.918367 1826:-0.909091 1827:-0.22807 1828:-0.541667 1829:-0.310345 1830:-0.151515 1831:-0.0188679 1832:-0.461538 1833:-0.694118 1834:-0.319149 1835:0.142857 1836:-0.591837 1837:-0.117647 1838:-0.359477 1839:-0.911111 1840:-0.448276 1841:-0.802083 1842:-0.490909 1843:-0.416667 1844:-0.888889 1845:-0.517241 1846:-0.517241 1847:-0.827815 1848:-0.565217 1849:-1 1850:0.297297 1851:-0.52381 1852:-0.764706 1853:-0.941176 1854:-0.694118 1855:-0.833333 1856:-0.627907 1857:-0.925 1858:-0.16129 1859:0.636364 1860:-0.435897 1861:-0.0416667 1862:-0.05 1863:0.384615 1864:-0.941176 1865:0.178571 1866:-1 1867:-0.1 1868:-0.655172 1869:-0.777778 1870:-0.855072 1871:-0.604651 1872:-0.641026 1873:-0.729032 1874:-0.97561 1875:-0.962025 1876:-0.84127 1877:-0.571429 1878:-0.975904 1879:-0.727273 1880:-0.877551 1881:-0.673469 1882:-0.897959 1883:-0.777778 1884:0.5 1885:-1 1886:-0.948718 1887:-0.282051 1888:-0.405405 1889:-0.16129 1890:-0.478261 1891:0.172414 1892:-1 1893:-0.610169 1894:-0.315789 1895:-0.137931 1896:0.608696 1897:-0.621622 1898:0.254902 1899:-0.957447 1900:-0.741935 1901:-0.80597 1902:-0.56 1903:-0.586207 1904:-0.813333 1905:-0.481481 1906:-0.573034 1907:-0.984127 1908:0.142857 1909:-0.217391 1910:-0.363636 1911:-0.806452 1912:-0.846154 1913:-0.85 1914:-0.648148 1915:-0.714286 1916:-0.953125 1917:-0.604938 1918:0.644444 1919:1 1920:-0.583333 1921:-0.423077 1922:-0.507692 1923:-0.2 1924:-0.391304 1925:1 1926:-0.8 1927:-0.8 1928:-0.870968 1929:-0.896552 1930:-0.873418 1931:-0.652174 1932:-0.716312 1933:-0.45679 1934:-0.568966 1935:-0.852349 1936:-0.873016 1937:-0.90566 1938:-0.832258 1939:-0.875 1940:-0.761589 1941:-0.443038 1942:-0.660714 1943:-0.517241 1944:0.947368 1945:-0.539823 1946:-0.699248 1947:0.741935 1948:0.0909091 1949:1 1950:-0.0967742 1951:0.454545 1952:-1 1953:-0.733333 1954:-0.914894 1955:-0.321429 1956:0.0169492 1957:1 1958:0.341463 1959:0.380282 1960:0.357143 1961:-1 1962:-0.257143 1963:-0.6 1964:-0.837037 1965:-0.576923 1966:0.178947 1967:-0.891892 1968:0.268293 1969:0.508772 1970:0.118644 1971:0.416667 1972:0.35 1973:-0.90604 1974:-0.663551 1975:-0.913793 1976:-0.862434 1977:-0.706294 1978:0.464286 1979:1 1980:-0.8 1981:1 1982:-0.650794 1983:-0.5 1984:-0.365854 1985:0.128205 1986:-0.619048 1987:-0.804878 1988:-0.886364 1989:-0.895833 1990:-0.977528 1991:-0.819672 1992:-0.736842 1993:-0.649123 1994:-0.34 1995:-0.3125 1996:-0.482927 1997:0.663866 1998:1 1999:0.00645161 2000:-0.325714 2001:-0.714286 2002:-0.764706 2003:-0.232143 2004:0.641026 2005:-0.806452 2006:-0.64557 2007:0.16 2008:-0.117647 2009:1 2010:-0.5 2011:0.0857143 2012:0.477477 2013:0.0153846 2014:0.621622 2015:0.28 2016:0.0178571 2017:1 2018:0.188571 2019:0.634146 2020:0.627451 2021:0.142857 2022:-0.292683 2023:-0.289474 2024:-1 2025:0.27907 2026:0.368421 2027:-0.424 2028:0.186441 2029:0.714286 2030:0.605634 2031:-0.222222 2032:-0.2 2033:-0.977528 2034:-0.658537 2035:-0.8 2036:-0.948718 2037:-0.422222 2038:0.590909 2039:0.741176 2040:0.0566038 2041:0.365079 2042:-0.233333 2043:-0.0769231 2044:-0.0212766 2045:0.518519 2046:-0.170732 2047:-0.962264 2048:-0.912281 2049:-0.652174 2050:-0.413043 2051:-0.337838 2052:-0.741573 2053:-0.497076 2054:0.0625 2055:-0.53125 2056:-0.403846 2057:-0.316129 2058:-0.383648 2059:0.202797 2060:-0.172043 2061:-0.585366 2062:-0.702703 2063:-0.179487 2064:-0.389474 2065:-0.1 2066:-0.65625 2067:0.346154 2068:0.0136986 2069:0.625899 2070:1 2071:0.534884 2072:0.168142 2073:0.211268 2074:0.405941 2075:0.468354 2076:0.586207 2077:0.5 2078:0.635514 2079:0.271028 2080:-0.114754 2081:-0.39726 2082:-0.291667 2083:-0.615385 2084:0.284404 2085:0.402299 2086:-0.28655 2087:-0.407407 2088:-0.555556 2089:-0.698925 2090:-0.798165 2091:-0.672727 2092:-0.918919 2093:-0.587786 2094:-1 2095:-0.982759 2096:-0.71831 2097:-0.267857 2098:0.00813008 2099:-0.152542 2100:-0.652893 2101:0.0810811 2102:-0.378378 2103:0.75 2104:-0.684211 2105:-0.529412 2106:-0.297297 2107:-0.76 2108:0.2 2109:-0.833333 2110:-0.8 2111:-0.428571 2112:-0.883495 2113:-0.512195 2114:-0.924528 2115:-0.628866 2116:0.692308 2117:-0.823529 2118:-0.714286 2119:-0.586207 2120:-0.3 2121:-0.731343 2122:-0.1875 2123:-0.857143 2124:0.442623 2125:-0.672727 2126:-0.483871 2127:0.4 2128:-0.898734 2129:-0.106383 2130:-0.581395 2131:-0.785714 2132:-0.8 2133:-0.777778 2134:-0.5 2135:-0.851852 2136:-0.681159 2137:0.304348 2138:-0.465753 2139:-0.98374 2140:-0.895833 2141:-0.907514 2142:-0.846154 2143:-0.777778 2144:-0.507692 2145:-0.714286 2146:-0.652174 2147:-0.938326 2148:-0.902439 2149:-0.918367 2150:-0.823529 2151:-0.984848 2152:-0.909091 2153:-0.815789 2154:-0.0869565 2155:-0.741935 2156:-0.454545 2157:-0.372549 2158:-0.22449 2159:0.702128 2160:-0.569892 2161:0.147541 2162:-0.621622 2163:-0.411765 2164:-0.647059 2165:1 2166:-0.444444 2167:-0.181818 2169:-0.176471 2170:-0.567568 2171:-0.878049 2172:-0.886179 2173:-0.787879 2174:-0.752809 2175:-1 2176:-0.321429 2177:-0.670886 2178:-0.341772 2179:-0.622642 2180:-0.584906 2181:-0.545455 2182:-0.566667 2183:0.442623 2184:0.220339 2185:-0.433333 2186:-0.724138 2187:-0.476923 2188:-0.285714 2189:-0.772727 2190:0.3125 2191:-0.419355 2192:-0.797872 2193:-0.955556 2194:-0.862069 2195:-0.941176 2196:-0.955056 2197:0.277778 2198:0.146497 2199:-0.686275 2200:-0.891304 2201:-0.878788 2202:-0.823529 2203:-0.904762 2204:-0.843137 2205:-0.783784 2206:-0.529412 2207:-0.951456 2208:-0.642857 2209:-0.571429 2210:-0.538462 2211:-0.692308 2212:-0.8 2213:-0.846154 2214:-0.52381 2215:-0.909091 2216:-0.461538 2217:-0.527778 2218:-0.622642 2219:0.737705 2220:-0.756757 2221:0.0612245 2222:-0.854545 2223:-0.411765 2224:-0.333333 2225:0.769231 2226:-0.857143 2227:0.5 2228:-0.833333 2229:-1 2230:-1 2231:-0.918919 2232:-0.814815 2233:-0.467811 2234:-0.15 2235:-0.757143 2236:-1 2237:-0.410256 2238:-0.185185 2239:-0.46988 2240:-0.892308 2241:-0.4 2242:-0.761905 2243:-0.922581 2244:-0.972603 2245:-0.423729 2246:-0.513514 2247:-0.434783 2248:-0.842105 2249:-0.783133 2251:-0.485714 2252:-0.351724 2253:-0.62406 2254:-0.493976 2255:-0.770833 2256:-0.622642 2257:-0.419355 2258:-0.363636 2259:-0.828829 2260:-0.583333 2261:-0.931034 2262:-0.753846 2263:-0.875 2264:-0.835821 2265:-0.494253 2266:-0.620513 2267:-0.918699 2268:-0.607843 2269:-0.714286 2270:-0.76 2271:-0.931624 2272:-0.88 2273:-0.815385 2274:-0.755102 2275:-0.833333 2276:-0.724138 2277:-1 2278:-0.766234 2279:-0.0833333 2280:-0.39759 2281:0.190476 2282:-0.609756 2283:-0.133333 2284:0.0769231 2286:-0.875 2287:-0.428571 2288:-1 2289:-0.619048 2290:-0.913043 2291:-0.960396 2292:-0.642857 2293:-0.705882 2294:-0.253731 2295:-0.658915 2296:-0.595506 2297:-0.515152 2298:-0.550562 2299:-0.846154 2300:-0.660714 2301:-0.375 2302:-0.428571 2303:-0.635417 2304:-0.825397 2305:-0.425287 2306:-0.34375 2307:-0.234043 2308:-0.544304 2309:-0.415929 2310:-0.0823529 2311:-0.416667 2312:-0.0819672 2313:-1 2314:-0.753425 2315:-0.432432 2316:-0.685185 2317:-0.314286 2318:0.278539 2320:-0.48538 2321:-0.704762 2322:-0.536232 2323:-0.818182 2324:-0.660819 2325:-0.785714 2326:-0.292035 2327:-0.788889 2328:0.276596 2329:-0.4 2330:-0.663158 2331:-0.696429 2332:-0.727273 2333:-0.692308 2334:-0.754386 2335:-0.848485 2336:-0.883721 2337:-0.842105 2338:-0.137931 2339:0.44 2340:-0.76 2341:0.0175439 2342:-0.821429 2343:0.833333 2344:0.4 2345:1 2346:-0.666667 2347:-0.806452 2348:-0.703704 2349:-0.454545 2350:-0.636364 2351:-0.683168 2352:-0.509202 2353:-0.319149 2354:-0.0609756 2355:-0.656805 2356:-0.44898 2357:-0.765957 2358:-0.868132 2359:-0.465347 2360:-0.592233 2361:-0.947368 2362:-0.981818 2363:-0.256831 2364:-0.313433 2365:-0.477477 2366:-0.76699 2367:-0.0769231 2368:-0.471264 2369:-0.299145 2370:0.6 2371:-0.530864 2372:-0.0519481 2373:-0.319588 2374:-0.261538 2375:0.2 2376:0.04 2377:-0.393939 2378:0.838057 2379:0.299492 2380:0.12381 2381:-0.504505 2382:-0.977528 2383:-0.908046 2384:-0.64497 2385:-0.170213 2386:-0.0917031 2387:-1 2388:0.454545 2389:0.0588235 2390:-0.141176 2391:-0.35 2392:-0.114754 2393:-0.645833 2394:-0.657895 2395:-1 2396:-0.39726 2397:-0.03125 2398:-0.164179 2399:-0.16129 
